/*
 * Copyright (c) 2025 EdgeImpulse Inc.
 *
 * Generated by Edge Impulse and licensed under the applicable Edge Impulse
 * Terms of Service. Community and Professional Terms of Service
 * (https://edgeimpulse.com/legal/terms-of-service) or Enterprise Terms of
 * Service (https://edgeimpulse.com/legal/enterprise-terms-of-service),
 * according to your product plan subscription (the “License”).
 *
 * This software, documentation and other associated files (collectively referred
 * to as the “Software”) is a single SDK variation generated by the Edge Impulse
 * platform and requires an active paid Edge Impulse subscription to use this
 * Software for any purpose.
 *
 * You may NOT use this Software unless you have an active Edge Impulse subscription
 * that meets the eligibility requirements for the applicable License, subject to
 * your full and continued compliance with the terms and conditions of the License,
 * including without limitation any usage restrictions under the applicable License.
 *
 * If you do not have an active Edge Impulse product plan subscription, or if use
 * of this Software exceeds the usage limitations of your Edge Impulse product plan
 * subscription, you are not permitted to use this Software and must immediately
 * delete and erase all copies of this Software within your control or possession.
 * Edge Impulse reserves all rights and remedies available to enforce its rights.
 *
 * Unless required by applicable law or agreed to in writing, the Software is
 * distributed on an "AS IS" BASIS, WITHOUT WARRANTIES OR CONDITIONS OF ANY KIND,
 * either express or implied. See the License for the specific language governing
 * permissions, disclaimers and limitations under the License.
 */
// Generated on: 20.03.2025 04:42:58

#include <stdio.h>
#include <stdlib.h>
#include "edge-impulse-sdk/tensorflow/lite/c/builtin_op_data.h"
#include "edge-impulse-sdk/tensorflow/lite/c/common.h"
#include "edge-impulse-sdk/tensorflow/lite/micro/micro_mutable_op_resolver.h"
#include "edge-impulse-sdk/porting/ei_classifier_porting.h"

#if EI_CLASSIFIER_PRINT_STATE
#if defined(__cplusplus) && EI_C_LINKAGE == 1
extern "C" {
    extern void ei_printf(const char *format, ...);
}
#else
extern void ei_printf(const char *format, ...);
#endif
#endif

#define STRINGIZE(x) #x
#define STRINGIZE_VALUE_OF(x) STRINGIZE(x)

#if defined (__GNUC__)  /* GNU compiler */
#define ALIGN(X) __attribute__((aligned(X)))
#define DEFINE_SECTION(x) __attribute__((section(x)))
#elif defined (_MSC_VER)
#define ALIGN(X) __declspec(align(X))
#elif defined (__TASKING__) /* TASKING Compiler */
#define ALIGN(X) __align(X)
#define DEFINE_SECTION(x) __attribute__((section(x)))
#elif defined (__ARMCC_VERSION) /* Arm Compiler */
#define ALIGN(X) __ALIGNED(x)
#define DEFINE_SECTION(x) __attribute__((section(x)))
#elif defined (__ICCARM__) /* IAR Compiler */
#define ALIGN(x) __attribute__((aligned(x)))
#define DEFINE_SECTION(x) __attribute__((section(x)))
#elif defined (__clang__) /* LLVM/Clang Compiler */
#define ALIGN(X) __ALIGNED(x)
#define DEFINE_SECTION(x) __attribute__((section(x)))
#endif

#if defined(EI_MODEL_SECTION) && (defined(__GNUC__) || defined(__clang__))
#define MODEL_SECTION(X) __attribute__((section(STRINGIZE_VALUE_OF(X))))
#else
#define MODEL_SECTION(X)
#endif

#ifndef EI_MAX_SCRATCH_BUFFER_COUNT
#ifndef CONFIG_IDF_TARGET_ESP32S3
#define EI_MAX_SCRATCH_BUFFER_COUNT 4
#else
#define EI_MAX_SCRATCH_BUFFER_COUNT 4
#endif // CONFIG_IDF_TARGET_ESP32S3
#endif // EI_MAX_SCRATCH_BUFFER_COUNT

#ifndef EI_MAX_OVERFLOW_BUFFER_COUNT
#define EI_MAX_OVERFLOW_BUFFER_COUNT 10
#endif // EI_MAX_OVERFLOW_BUFFER_COUNT

using namespace tflite;
using namespace tflite::ops;
using namespace tflite::ops::micro;

namespace {

#if defined(EI_CLASSIFIER_ALLOCATION_STATIC_HIMAX) || defined(EI_CLASSIFIER_ALLOCATION_STATIC_HIMAX_GNU)
constexpr int kTensorArenaSize = 5578976;
#else
constexpr int kTensorArenaSize = 5577952;
#endif

#if defined(EI_CLASSIFIER_ALLOCATION_STATIC)
#if defined (EI_TENSOR_ARENA_LOCATION)
uint8_t tensor_arena[kTensorArenaSize] ALIGN(16) DEFINE_SECTION(STRINGIZE_VALUE_OF(EI_TENSOR_ARENA_LOCATION));
#else
uint8_t tensor_arena[kTensorArenaSize] ALIGN(16);
#endif
#elif defined(EI_CLASSIFIER_ALLOCATION_STATIC_HIMAX)
#pragma Bss(".tensor_arena")
uint8_t tensor_arena[kTensorArenaSize] ALIGN(16);
#pragma Bss()
#elif defined(EI_CLASSIFIER_ALLOCATION_STATIC_HIMAX_GNU)
uint8_t tensor_arena[kTensorArenaSize] ALIGN(16) __attribute__((section(".tensor_arena")));
#else
#define EI_CLASSIFIER_ALLOCATION_HEAP 1
uint8_t* tensor_arena = NULL;
#endif

static uint8_t* tensor_boundary;
static uint8_t* current_location;

template <int SZ, class T> struct TfArray {
  int sz; T elem[SZ];
};

enum used_operators_e {
  OP_CONV_2D, OP_DEPTHWISE_CONV_2D, OP_PAD, OP_ADD, OP_SOFTMAX,  OP_LAST
};

struct TensorInfo_t { // subset of TfLiteTensor used for initialization from constant memory
  TfLiteAllocationType allocation_type;
  TfLiteType type;
  void* data;
  TfLiteIntArray* dims;
  size_t bytes;
};

typedef struct {
  TfLiteTensor tensor;
  int16_t index;
} TfLiteTensorWithIndex;

typedef struct {
  TfLiteEvalTensor tensor;
  int16_t index;
} TfLiteEvalTensorWithIndex;

TfLiteContext ctx{};
static const int MAX_TFL_TENSOR_COUNT = 4;
static TfLiteTensorWithIndex tflTensors[MAX_TFL_TENSOR_COUNT];
static const int MAX_TFL_EVAL_COUNT = 4;
static TfLiteEvalTensorWithIndex tflEvalTensors[MAX_TFL_EVAL_COUNT];
TfLiteRegistration registrations[OP_LAST];

namespace g0 {
const TfArray<4, int> tensor_dimension0 = { 4, { 1,240,240,3 } };
const MODEL_SECTION(EI_MODEL_SECTION) ALIGN(16) float tensor_data1[16] = { -1.40682053565979, 2.8010902404785156, -16.35539436340332, 1.1069989204406738, 3.2580969333648682, 0.0069417953491210938, 4.2081036567687988, 0.662811279296875, 0.1216793954372406, 1.9311457872390747, 3.053574800491333, 5.7278714179992676, -1.2384405136108398, 3.8266041278839111, 2.1765995025634766, -0.13350634276866913, };
const TfArray<1, int> tensor_dimension1 = { 1, { 16 } };
const MODEL_SECTION(EI_MODEL_SECTION) ALIGN(16) float tensor_data2[16] = { -0.30109995603561401, 2.5664050579071045, 4.0208406448364258, 3.5497419834136963, 1.4446654319763184, 3.3132636547088623, 5.2514505386352539, 3.8900213241577148, 0.29913991689682007, 1.6110529899597168, 7.2070322036743164, 18.839988708496094, -0.32396247982978821, 7.1377325057983398, 2.0438926219940186, -0.41642889380455017, };
const TfArray<1, int> tensor_dimension2 = { 1, { 16 } };
const MODEL_SECTION(EI_MODEL_SECTION) ALIGN(16) float tensor_data3[48] = { 2.0988280773162842, 0.034403283149003983, 3.1768953800201416, 1.8763232231140137, 2.0022375583648682, 2.0618596076965332, 3.832883358001709, -0.047828271985054016, 0.025242650881409645, -0.7395133376121521, 1.4925206899642944, 0.85481154918670654, 2.2167568206787109, -0.16218365728855133, 2.6194908618927002, 3.2975797653198242, -0.1309230625629425, -0.72496384382247925, -0.17648227512836456, 3.8744544982910156, 1.0837393999099731, -0.092814117670059204, 0.0045246817171573639, 0.62721675634384155, 3.7949919700622559, -0.53839617967605591, 0.14378207921981812, 1.2458686828613281, 1.1366754770278931, 2.9369709491729736, 2.9478468894958496, 2.3349900245666504, 0.75617218017578125, 3.2335608005523682, 0.13278977572917938, -1.1868720054626465, 1.5171283483505249, 1.2833281755447388, -0.38348725438117981, 3.4642665386199951, 2.8412051200866699, 2.2041909694671631, -0.14142577350139618, -0.8333931565284729, 5.0213327407836914, 0.08925628662109375, 2.7968857288360596, 0.88160985708236694, };
const TfArray<1, int> tensor_dimension3 = { 1, { 48 } };
const MODEL_SECTION(EI_MODEL_SECTION) ALIGN(16) float tensor_data4[48] = { 6.0861587524414062, 3.8809630870819092, 8.1373605728149414, 4.253446102142334, -0.051985517144203186, 3.0010528564453125, 0.39353096485137939, 1.5348246097564697, 2.3432731628417969, 0.7963176965713501, 3.2583448886871338, 0.043364763259887695, -8.3768177032470703, -0.70510011911392212, 2.5463011264801025, 0.14291243255138397, -0.56034213304519653, 0.57386112213134766, 0.27305245399475098, 0.24402359127998352, -1.4671562910079956, -0.28075122833251953, 5.6138491630554199, 1.250446081161499, -1.6911423206329346, 2.6926431655883789, 1.1888525485992432, 0.9109262228012085, -0.82117855548858643, 0.98123264312744141, -0.38403856754302979, -11.299925804138184, 2.4256207942962646, 1.1089363098144531, 2.4940986633300781, 0.33949616551399231, 0.87456965446472168, -0.24118995666503906, 4.6113653182983398, -2.5617260932922363, 1.1007896661758423, -3.5331952571868896, 0.39802980422973633, 0.90613913536071777, -0.49099534749984741, 5.8822598457336426, 0.23386566340923309, -3.2992112636566162, };
const TfArray<1, int> tensor_dimension4 = { 1, { 48 } };
const MODEL_SECTION(EI_MODEL_SECTION) ALIGN(16) float tensor_data5[48] = { 4.3136415481567383, 2.2705974578857422, 1.5549428462982178, 3.2188906669616699, 2.2530298233032227, 5.030494213104248, -1.9178436994552612, -0.29920804500579834, 0.57023411989212036, 1.360526442527771, 2.2436656951904297, 0.1315273642539978, 0.96116262674331665, -0.47163507342338562, 0.43227577209472656, -3.638777494430542, 1.6308410167694092, 4.2253384590148926, -0.51505321264266968, 2.7194969654083252, 1.2028549909591675, 0.98912131786346436, 3.9790554046630859, -0.52358037233352661, 1.2163101434707642, 1.1672717332839966, 4.0549325942993164, 3.6753783226013184, -0.089266985654830933, -2.5962011814117432, 0.059757057577371597, 0.84731471538543701, -1.9695569276809692, 2.2101171016693115, 1.0606091022491455, 1.8688879013061523, 3.6664636135101318, 1.3428179025650024, 2.3518872261047363, 4.5351066589355469, -0.57032954692840576, 2.7585990428924561, 0.48735517263412476, 1.4947426319122314, 1.1884458065032959, 1.1022615432739258, -1.1326450109481812, 2.6697192192077637, };
const TfArray<1, int> tensor_dimension5 = { 1, { 48 } };
const MODEL_SECTION(EI_MODEL_SECTION) ALIGN(16) float tensor_data6[48] = { -23.978984832763672, -0.10410916805267334, 1.3995598554611206, -0.01243874803185463, 0.84270733594894409, -0.79515063762664795, 1.1128071546554565, 3.4608252048492432, 0.14599315822124481, 4.7659988403320312, -0.24564391374588013, 4.2715234756469727, -1.8908500671386719, -0.22731474041938782, 2.5098850727081299, 1.506462574005127, 0.24534925818443298, 4.4929847717285156, 2.4467794895172119, 2.5084629058837891, 0.048653315752744675, -0.057737965136766434, 0.15531332790851593, 2.1624269485473633, -1.3728760480880737, 3.7257986068725586, 30.583799362182617, 3.5626780986785889, 0.68943572044372559, 0.81309831142425537, -0.094504982233047485, 0.27147340774536133, 0.82965707778930664, 3.0087950229644775, -1.4879227876663208, 2.4928240776062012, -4.7188477516174316, 2.4921975135803223, -6.9702062606811523, 2.3093171119689941, 3.2807326316833496, 1.449657678604126, 1.6530324220657349, -0.29860660433769226, 2.4427247047424316, 0.40520173311233521, 0.31368273496627808, 0.061111904680728912, };
const TfArray<1, int> tensor_dimension6 = { 1, { 48 } };
const MODEL_SECTION(EI_MODEL_SECTION) ALIGN(16) float tensor_data7[48] = { 0.23477011919021606, 0.70173090696334839, 0.55565339326858521, 0.15149515867233276, 2.1915178298950195, 4.053584098815918, 1.0924711227416992, 0.0029060572851449251, -0.28916192054748535, -0.41765803098678589, 1.0191551446914673, 0.2954203188419342, 1.2513576745986938, 0.75796091556549072, 3.5976262092590332, 1.2554255723953247, 0.50015687942504883, -0.38546028733253479, -0.065331026911735535, 0.90981757640838623, -0.63301277160644531, 2.5592255592346191, 3.6952216625213623, 1.561445951461792, 1.6058987379074097, 0.068461470305919647, 6.9477558135986328, 1.8538447618484497, 1.7266058921813965, -0.21948477625846863, 2.6143183708190918, 1.2201384305953979, 0.38120105862617493, -0.054003607481718063, 3.7230038642883301, 1.8348313570022583, -1.3839657306671143, 0.086273811757564545, -0.15718880295753479, 1.8619613647460938, 0.16688379645347595, -0.15433230996131897, -0.29661667346954346, 8.6145475506782532e-05, 1.9305744171142578, 1.3715716600418091, 0.2153046578168869, 1.1574081182479858, };
const TfArray<1, int> tensor_dimension7 = { 1, { 48 } };
const MODEL_SECTION(EI_MODEL_SECTION) ALIGN(16) float tensor_data8[48] = { 0.14627683162689209, 1.4995652437210083, -0.17156630754470825, 2.337693452835083, 0.62847000360488892, 9.7097787857055664, -0.30367210507392883, 5.7861728668212891, 0.36271083354949951, 1.237307071685791, 1.7655729055404663, 0.44091439247131348, -0.1776503324508667, 1.2187792062759399, -0.32533282041549683, -0.29229903221130371, -0.047175012528896332, 0.14924928545951843, 0.32696282863616943, -0.27250018715858459, 0.11167049407958984, -0.52955007553100586, -0.021485194563865662, -3.6933698654174805, -0.47029274702072144, 4.4528703689575195, 4.4471268653869629, 6.9665317535400391, 0.32886603474617004, 0.37031304836273193, -0.46375516057014465, 0.052941769361495972, 1.4820395708084106, -0.16381609439849854, 0.70280146598815918, -0.84214949607849121, 5.7135396003723145, 0.35516732931137085, 5.6934409141540527, 0.42099130153656006, -0.12927615642547607, 5.9177346229553223, 0.11580681800842285, 0.32590663433074951, 1.5033130645751953, -0.015863746404647827, 0.33020913600921631, 1.4277453422546387, };
const TfArray<1, int> tensor_dimension8 = { 1, { 48 } };
const MODEL_SECTION(EI_MODEL_SECTION) ALIGN(16) float tensor_data9[96] = { 2.5974068641662598, 0.33106875419616699, 1.364126443862915, -0.55416923761367798, 1.5933922529220581, 0.93099731206893921, 3.1201715469360352, 3.4979383945465088, -0.44955864548683167, 1.81630539894104, 1.4357004165649414, 0.81668514013290405, 2.768730640411377, 4.8108186721801758, -0.10889992117881775, -0.69103878736495972, 2.227092981338501, 2.3463115692138672, 0.4400603175163269, -0.11340304464101791, -0.29188114404678345, 2.4586844444274902, 1.5221190452575684, 0.79062771797180176, 1.7759550809860229, 2.0850892066955566, 1.4394956827163696, 0.90192615985870361, 0.029988229274749756, -0.0046004909090697765, 1.4471781253814697, 1.8855037689208984, 1.9621778726577759, 1.0947721004486084, 1.6699116230010986, -0.28558146953582764, 2.2788658142089844, 2.6349236965179443, 0.46906700730323792, 0.93869316577911377, 0.49258521199226379, 1.8830529451370239, 2.1380650997161865, 0.74916249513626099, 1.1286441087722778, 3.2794778347015381, 2.8376712799072266, 1.4344810247421265, 1.5932427644729614, 0.88940531015396118, 0.12589773535728455, -0.65453511476516724, 2.6649267673492432, 1.5970361232757568, 2.3352491855621338, 1.8553520441055298, -0.12065418064594269, 1.7261084318161011, 0.78367900848388672, 1.6182893514633179, 1.6936830282211304, 1.3921370506286621, 1.0628775358200073, 2.7717511653900146, 1.0589783191680908, 1.1208044290542603, 1.958774209022522, -0.33557170629501343, 2.6939473152160645, 1.1334463357925415, 1.9817848205566406, -0.49448966979980469, -0.39423149824142456, 1.3131155967712402, 0.43949791789054871, 1.2657065391540527, 2.3727200031280518, 4.4871940612792969, 1.6674319505691528, -1.2254807949066162, 1.0874472856521606, -2.0805108547210693, -0.37517064809799194, 0.27619799971580505, 1.594249963760376, 1.5652732849121094, 1.6260117292404175, 1.3787752389907837, 1.6981467008590698, 1.603485107421875, 1.3905656337738037, 1.6941604614257812, 2.1240198612213135, 2.7620301246643066, -2.9270398616790771, 3.2771944999694824, };
const TfArray<1, int> tensor_dimension9 = { 1, { 96 } };
const MODEL_SECTION(EI_MODEL_SECTION) ALIGN(16) float tensor_data10[96] = { 2.3350138664245605, -1.0732854604721069, 1.0700350999832153, 2.136765718460083, -0.35634297132492065, -0.80032193660736084, -3.4428281784057617, 0.14288145303726196, -0.29122775793075562, 0.40441012382507324, 0.44028377532958984, -0.73397344350814819, 0.10127250850200653, -0.3843536376953125, 1.0186682939529419, -0.741568922996521, -0.12175969779491425, 5.0757136344909668, 1.5421113967895508, 0.55405259132385254, 0.15465143322944641, -0.75851106643676758, 0.10953958332538605, 0.26593053340911865, 3.7205154895782471, 0.033019900321960449, -0.12683083117008209, -0.70915007591247559, -0.63053208589553833, -0.84686356782913208, 0.6508101224899292, -1.4173136949539185, -0.066101223230361938, -0.19046115875244141, -0.068080544471740723, 2.3856797218322754, 0.59764444828033447, -0.47491234540939331, 1.1375466585159302, 0.045539945363998413, -0.1567794531583786, 0.52162623405456543, -3.49936842918396, -1.3219741582870483, -1.2383749485015869, 4.2193374633789062, -0.029278427362442017, 3.5828804969787598, 2.5949225425720215, -2.487544059753418, -0.074454404413700104, 1.2259998321533203, 1.6067696809768677, -0.14256943762302399, -1.2922896146774292, 0.85926902294158936, -3.7482860088348389, 0.26117962598800659, 0.20131322741508484, -0.59713280200958252, -0.61956781148910522, -0.16172242164611816, -3.717191219329834, -0.096875801682472229, 0.47001376748085022, 2.9895820617675781, 2.7065141201019287, 1.8298588991165161, -4.1283960342407227, -0.06542949378490448, -1.8977422714233398, -0.11054717004299164, 5.7764215469360352, 1.9260603189468384, 0.00071315467357635498, 0.033296763896942139, 9.4238243103027344, 2.1483056545257568, -0.31257587671279907, -1.8383805751800537, -0.25651443004608154, -2.0707237720489502, 0.09908062219619751, -0.3955504298210144, 0.085541471838951111, -0.12253415584564209, 0.20054584741592407, -0.14867627620697021, 0.32779538631439209, -0.32080453634262085, -0.010526292026042938, -0.052249327301979065, 0.07873263955116272, -0.46098160743713379, 1.2337360382080078, 4.0510191917419434, };
const TfArray<1, int> tensor_dimension10 = { 1, { 96 } };
const MODEL_SECTION(EI_MODEL_SECTION) ALIGN(16) float tensor_data11[96] = { 0.38907036185264587, 1.4917037487030029, 1.8875024318695068, 2.3146002292633057, 2.9484784603118896, -0.99858051538467407, -0.79535377025604248, 1.6356642246246338, 2.3329212665557861, -1.3858159780502319, 2.6802141666412354, 0.87554693222045898, 1.2684530019760132, 2.3164541721343994, 2.3559012413024902, 0.57228720188140869, 0.44056710600852966, 1.2476074695587158, 2.2209041118621826, 1.1767410039901733, -0.079310551285743713, 0.23492570221424103, 1.9942888021469116, -0.63835102319717407, 2.6018576622009277, 0.0040812757797539234, 2.2336828708648682, 1.4110209941864014, 1.6234158277511597, 3.5141692161560059, 2.8330669403076172, 2.4516184329986572, 1.6681147813796997, -0.20395243167877197, 2.0026466846466064, 0.59630048274993896, 0.51710915565490723, 1.4841817617416382, 2.723689079284668, -0.55295312404632568, 1.8698439598083496, 1.5577055215835571, 2.6957716941833496, -1.057392954826355, 3.2476425170898438, 1.5414066314697266, 1.750341534614563, 2.7015767097473145, 4.1296958923339844, 2.1054799556732178, -0.10969189554452896, 1.7262371778488159, -1.0593641996383667, -0.032550901174545288, -1.0439237356185913, 1.0867331027984619, -0.12171203643083572, 1.8652842044830322, 2.0359306335449219, 1.4930638074874878, 1.6128339767456055, 1.4169461727142334, 1.4720994234085083, 0.9937015175819397, 2.4717612266540527, 1.9379173517227173, 1.2889658212661743, -1.3359932899475098, 1.663377046585083, -0.69573354721069336, 1.1163789033889771, 1.599644660949707, 2.0670797824859619, 1.0350970029830933, -1.5547535419464111, -1.3506253957748413, 1.667134165763855, 0.09033270925283432, 0.74822098016738892, -0.4050840437412262, 2.0417628288269043, 1.6527069807052612, 0.88237345218658447, 1.9483458995819092, 1.1633676290512085, 0.084647856652736664, 2.3301711082458496, 3.8476858139038086, 1.4035553932189941, 2.2621240615844727, 1.2709212303161621, -0.068851679563522339, 1.4693316221237183, 1.6164356470108032, 1.1212084293365479, 1.7040961980819702, };
const TfArray<1, int> tensor_dimension11 = { 1, { 96 } };
const MODEL_SECTION(EI_MODEL_SECTION) ALIGN(16) float tensor_data12[96] = { 2.3471417427062988, 5.824315071105957, -0.21734276413917542, -0.37121278047561646, 3.5869004726409912, -0.80977541208267212, 0.031308412551879883, 0.039321720600128174, 1.6923381090164185, 2.4381327629089355, -0.91330277919769287, -0.018475264310836792, 0.1608436107635498, 1.2820727825164795, 2.5672714710235596, -1.4419208765029907, -0.73467224836349487, -0.06153518334031105, -0.19782862067222595, 1.0954346656799316, -0.73578685522079468, 0.64270716905593872, -0.68912041187286377, 0.75498390197753906, 3.3682138919830322, -0.0066256523132324219, -1.2040674686431885, 3.3680803775787354, 1.1074908971786499, -9.8370227813720703, 0.63773161172866821, 5.3916544914245605, 3.0678637027740479, -1.6810541152954102, 0.69338691234588623, 0.39170229434967041, -0.088639140129089355, -0.19888949394226074, 1.1380012035369873, -0.78908360004425049, -1.4785542488098145, -0.2755354642868042, -1.6320600509643555, -0.0050192028284072876, 12.633499145507812, -0.16482295095920563, 1.7224329710006714, -0.53986108303070068, -11.613122940063477, 0.20092672109603882, 0.042293272912502289, -0.045253828167915344, -0.52564585208892822, 2.7935311794281006, -0.84007531404495239, 1.6975321769714355, 2.7729244232177734, 0.016984954476356506, 1.5914785861968994, 0.14149981737136841, -2.8007428646087646, -0.46552097797393799, 0.075485967099666595, -0.070344582200050354, -0.42555904388427734, 2.0791912078857422, -0.45619529485702515, -2.0832810401916504, -0.64574813842773438, 0.42829912900924683, -0.10138026624917984, -0.68328464031219482, 0.34647846221923828, 0.0035615861415863037, -0.64680784940719604, -1.8544807434082031, -0.077463850378990173, -0.066582590341567993, 2.5565145015716553, -1.2120548486709595, -1.4809249639511108, -3.3690433502197266, -0.066916972398757935, 0.051818400621414185, 3.5966727733612061, -1.585663914680481, -0.84921532869338989, -18.078004837036133, -1.8096939325332642, 1.7292909622192383, -0.50195294618606567, 0.98608338832855225, 0.00109071284532547, -0.21448773145675659, -0.85295271873474121, 0.14954757690429688, };
const TfArray<1, int> tensor_dimension12 = { 1, { 96 } };
const MODEL_SECTION(EI_MODEL_SECTION) ALIGN(16) float tensor_data13[96] = { -0.61825782060623169, 1.5641908645629883, 2.3824124336242676, 0.86266463994979858, -1.0910358428955078, -1.4387829303741455, 3.3177037239074707, 0.6920282244682312, 0.58537667989730835, -0.61816489696502686, 1.9983533620834351, -0.067319944500923157, -2.5349118709564209, 2.8409957885742188, 3.1004493236541748, 1.1574071645736694, 1.8622293472290039, 1.4475269317626953, -1.9677653312683105, -1.7164018154144287, 0.62259548902511597, 2.6928763389587402, 3.0749485492706299, 1.6671410799026489, 0.19193443655967712, 0.48826465010643005, 2.9859771728515625, 1.0837365388870239, 0.52795827388763428, -2.0019490718841553, 1.4741387367248535, -0.76755386590957642, -0.06592162698507309, 1.1645119190216064, 0.0058186938986182213, 0.24750274419784546, 1.9207011461257935, 1.0697925090789795, -0.61030364036560059, 1.7765094041824341, 1.2733068466186523, 2.5852644443511963, 1.5276558399200439, 2.3186216354370117, 1.9191133975982666, 1.0022658109664917, 0.51214450597763062, 2.1616449356079102, 1.3417245149612427, -1.289323091506958, -1.5622810125350952, 0.086523771286010742, -0.14019954204559326, -0.30034220218658447, 0.79628670215606689, -0.0033446247689425945, 0.0970606729388237, -0.28206977248191833, -1.5342162847518921, 1.8392496109008789, -0.75055307149887085, 0.62783992290496826, -0.25332722067832947, -0.78697597980499268, -1.8983449935913086, 1.9235579967498779, 2.1661562919616699, 0.37934362888336182, -1.1634769439697266, 0.33044171333312988, 0.40450161695480347, 0.51923954486846924, 1.3408294916152954, -0.42930924892425537, 0.20611609518527985, 2.1583526134490967, -0.13294589519500732, 1.8877313137054443, 1.8252902030944824, -0.20641583204269409, 1.4544429779052734, 0.33916425704956055, -0.076232790946960449, 0.22925150394439697, 1.8124791383743286, 2.3799457550048828, 2.3297028541564941, 0.28026497364044189, 0.68804782629013062, 2.0417940616607666, -0.087048232555389404, -1.9756592512130737, 0.22274713218212128, -1.0431100130081177, -0.61871898174285889, -0.40375372767448425, };
const TfArray<1, int> tensor_dimension13 = { 1, { 96 } };
const MODEL_SECTION(EI_MODEL_SECTION) ALIGN(16) float tensor_data14[32] = { 0.0054393322207033634, 0.0056299385614693165, 0.0058412505313754082, 0.013563977554440498, -0.0047038416378200054, 0.0056143449619412422, -0.0087168263271450996, 0.0025449499953538179, -0.0080511709675192833, -0.013371740467846394, 0.0057365512475371361, -0.0018589806277304888, 0.0044510276056826115, 0.0048056826926767826, -0.022051418200135231, -0.014861739240586758, -0.0085299247875809669, 0.027471844106912613, 0.030309999361634254, -0.014692251570522785, -0.008583500050008297, 0.0044104205444455147, -0.0098613910377025604, 0.0053081270307302475, -0.016760023310780525, 0.00033648102544248104, -0.0064638033509254456, -0.010330581106245518, -0.0028236545622348785, -0.0094751110300421715, 0.022220943123102188, 0.024411333724856377, };
const TfArray<1, int> tensor_dimension14 = { 1, { 32 } };
const MODEL_SECTION(EI_MODEL_SECTION) ALIGN(16) float tensor_data15[1*3*3*16] = { 
  /* [0][0][][] */ -8.5695571899414062,0.20050497353076935,-0.2030356377363205,-2.5728750228881836,0.43483361601829529,-0.63460582494735718,1.7666901350021362,-0.96568155288696289,-0.20391477644443512,-0.060242325067520142,-0.098421178758144379,1.3775674104690552,-3.9252877235412598,0.056487485766410828,0.6852831244468689,-12.109872817993164, 4.0267438888549805,0.26648542284965515,-0.31330525875091553,2.5819966793060303,1.4204480648040771,-1.2036176919937134,2.8173792362213135,-1.6156772375106812,-0.19228513538837433,2.4660441875457764,-1.563482403755188,2.4359691143035889,-3.2424850463867188,0.063526563346385956,1.6168718338012695,-4.0818142890930176, 1.9072631597518921,-0.25677230954170227,0.22182232141494751,-0.041110511869192123,-0.80570900440216064,0.63453376293182373,-2.1066195964813232,0.98397731781005859,-0.21569623053073883,-0.53109556436538696,0.04461713507771492,-0.73767757415771484,1.895155668258667,0.013821565546095371,-1.2991260290145874,-4.7821164131164551, 
  /* [0][1][][] */ -10.087335586547852,1.3624726533889771,-0.055720090866088867,0.27232730388641357,-0.48584663867950439,0.14560137689113617,-0.64103877544403076,0.17858383059501648,-0.062402769923210144,0.0094257080927491188,0.034591395407915115,-5.1704883575439453,-1.515388011932373,0.1031162291765213,-0.38113227486610413,-2.3038740158081055, -6.2179684638977051,-0.44129607081413269,-0.14180305600166321,-0.29681572318077087,-0.082369692623615265,-0.24394124746322632,0.16970573365688324,-0.35218003392219543,-0.24585908651351929,-1.7278445959091187,0.25371661782264709,-0.571632981300354,-3.2171955108642578,-1.5682104825973511,0.0066286055371165276,3.8089182376861572, 1.1119179725646973,0.014100423082709312,0.15822362899780273,0.042177464812994003,0.031524144113063812,0.31886836886405945,-0.56943082809448242,0.42112079262733459,-0.28965049982070923,0.12474755197763443,-0.023174785077571869,0.066940739750862122,-0.66196262836456299,0.14296741783618927,-0.053189832717180252,7.1796369552612305, 
  /* [0][2][][] */ -9.1553964614868164,-0.77246958017349243,0.16796313226222992,0.042146481573581696,-0.069319404661655426,0.36577725410461426,-0.87649297714233398,0.66292762756347656,-0.17435812950134277,0.005542414728552103,-0.0048278393223881721,0.20054125785827637,1.2398595809936523,0.020270450040698051,-0.34656408429145813,3.7542333602905273, 1.8149527311325073,-0.042025182396173477,0.076068051159381866,-0.034805279225111008,-0.29938316345214844,0.37774437665939331,-0.76339632272720337,0.26073461771011353,-0.2858547568321228,-0.25347769260406494,-0.0055602057836949825,3.9751451015472412,-1.784921407699585,-0.0023417295888066292,-0.36640596389770508,-18.429813385009766, 1.6327332258224487,-0.073336318135261536,0.04584469273686409,-0.0022074528969824314,0.048114210367202759,0.13570716977119446,0.19413177669048309,0.27926850318908691,-0.26318228244781494,0.084209367632865906,-0.012188752181828022,-6.0156869888305664,3.3074154853820801,0.03046862781047821,0.21287606656551361,-21.090656280517578, 
};
const TfArray<4, int> tensor_dimension15 = { 4, { 1,3,3,16 } };
const MODEL_SECTION(EI_MODEL_SECTION) ALIGN(16) float tensor_data16[8] = { -1.710361123085022, -99.855560302734375, -22.672966003417969, -18.284238815307617, -37.832977294921875, -5.7637205123901367, -44.686927795410156, -34.846412658691406, };
const TfArray<1, int> tensor_dimension16 = { 1, { 8 } };
const MODEL_SECTION(EI_MODEL_SECTION) ALIGN(16) float tensor_data17[1*3*3*48] = { 
  /* [0][0][][] */ -0.18583089113235474,-0.065509378910064697,-0.037102691829204559,-0.067053623497486115,0.058356363326311111,-0.35102817416191101,-0.45386824011802673,-0.21054515242576599,-0.095467217266559601,-0.074522495269775391,0.039839886128902435,0.063321717083454132,0.25767633318901062,-16.692045211791992,0.41547399759292603,-0.39362061023712158,-13.208820343017578,-0.087960682809352875,0.11588133126497269,-0.052223499864339828,-0.0048122177831828594,-0.52006161212921143,-0.50150078535079956,-0.11074876040220261,-0.12038837373256683,-0.35806381702423096,-0.10996648669242859,-0.035242266952991486,0.93638890981674194,0.039440326392650604,0.2263185977935791,0.24609623849391937,-1.3004186153411865,-0.036238498985767365,-0.024800542742013931,0.36303830146789551,0.013476511463522911,0.88161826133728027,-0.15528817474842072,0.31387731432914734,-0.25146797299385071,-0.084351867437362671,0.38701218366622925,-0.048269692808389664,-0.024201162159442902,-0.095510482788085938,-0.73171144723892212,0.65598863363265991, 0.32773908972740173,0.036609083414077759,-0.15280938148498535,-0.1173456683754921,0.42748484015464783,-1.1211355924606323,-0.72906821966171265,-0.24923355877399445,0.21427242457866669,-0.11142955720424652,-0.53628534078598022,0.10538425296545029,0.28255212306976318,-19.226551055908203,-0.0024158030282706022,0.56096768379211426,-6.057316780090332,-0.11680907011032104,0.18510854244232178,0.05848868191242218,0.0416584312915802,-0.83009487390518188,-0.57350927591323853,-0.096652045845985413,-0.016087695956230164,-0.36302217841148376,-0.20800434052944183,-0.066714063286781311,-0.73581892251968384,0.054313994944095612,-0.13521409034729004,0.50477892160415649,0.29372727870941162,-0.052309013903141022,0.23279102146625519,0.57562398910522461,0.0096367700025439262,1.3306914567947388,-0.11228799074888229,0.51079016923904419,-0.41870155930519104,0.035487022250890732,0.46108415722846985,-0.056708712130784988,0.013593574985861778,-0.062967896461486816,-1.0674983263015747,0.57682788372039795, -0.13925004005432129,0.12875096499919891,0.035445041954517365,-0.021164359524846077,-0.47262850403785706,-0.95457834005355835,-0.33552142977714539,-0.054114606231451035,0.30749636888504028,-0.011471947655081749,-0.58904892206192017,0.037322185933589935,0.063554257154464722,-16.737319946289062,-0.3641650378704071,-0.10310562700033188,-14.83458137512207,-0.025337252765893936,0.08598645031452179,0.099762320518493652,-0.065144091844558716,-0.55806589126586914,-0.16013750433921814,-0.032343532890081406,-0.037907585501670837,-0.08355441689491272,-0.099803358316421509,-0.018280480057001114,-0.13455778360366821,0.044705703854560852,-0.056386422365903854,0.087012298405170441,1.0895552635192871,-0.035533510148525238,0.25365468859672546,0.21754990518093109,0.010589038021862507,0.66218429803848267,-0.0049681868404150009,0.064886830747127533,-0.2590484619140625,0.017222732305526733,0.025023238733410835,-0.034980077296495438,-0.15493983030319214,0.014327110722661018,-0.45997634530067444,0.093509294092655182, 
  /* [0][1][][] */ -0.37248402833938599,-0.37917137145996094,-0.24280630052089691,-0.17801856994628906,-0.068439722061157227,0.47576296329498291,0.56526470184326172,-0.32454094290733337,-0.093346834182739258,-0.15861852467060089,-0.09775136411190033,0.10895376652479172,0.67494732141494751,-15.169624328613281,0.099259965121746063,-0.88226264715194702,-14.175686836242676,-0.098115809261798859,0.28241688013076782,-0.63933145999908447,0.17025281488895416,-0.65144187211990356,-0.46368840336799622,-0.17715974152088165,0.14394408464431763,-0.34048229455947876,-0.13540531694889069,-0.066852502524852753,1.692169189453125,-0.15521205961704254,0.30332028865814209,0.78614062070846558,-0.44806206226348877,-0.034779086709022522,-0.051170017570257187,0.57159191370010376,-0.025620494037866592,-1.4198483228683472,-0.13053396344184875,0.35936763882637024,0.13857856392860413,0.35235318541526794,0.38744431734085083,-0.048449009656906128,-0.83540832996368408,-0.32126414775848389,0.6900297999382019,0.73690152168273926, 0.55149894952774048,-0.24589480459690094,-0.69843024015426636,-0.52056235074996948,0.941508948802948,0.35517707467079163,0.53457546234130859,-0.39154481887817383,0.35649073123931885,-0.18560446798801422,-0.51625543832778931,0.12321694940328598,0.9552190899848938,-3.3925542831420898,-0.022086815908551216,1.1594580411911011,-6.9975090026855469,-0.13230939209461212,0.4007413387298584,-1.0545265674591064,0.52085638046264648,-0.94339495897293091,-0.54143542051315308,-0.16651248931884766,0.43544712662696838,-0.28477016091346741,-0.22014042735099792,-0.22065016627311707,-1.6075986623764038,-0.33073621988296509,-0.16806595027446747,1.1871025562286377,0.28500229120254517,-0.045614372938871384,0.4550774097442627,0.87118667364120483,-0.049909275025129318,-2.3544154167175293,-0.11726220697164536,0.36084699630737305,0.19928543269634247,0.75445097684860229,0.47223401069641113,-0.052170634269714355,-1.0350677967071533,-0.34956350922584534,1.0500674247741699,0.78037792444229126, -0.22928427159786224,0.092535547912120819,-0.34024894237518311,-0.34726801514625549,-0.87698239088058472,-0.20089532434940338,0.17621153593063354,-0.11684379726648331,0.4495989978313446,-0.029831387102603912,-0.35420429706573486,0.034635711461305618,0.42159742116928101,-16.399894714355469,-0.09023459255695343,-0.39785239100456238,-4.3217730522155762,-0.030369041487574577,0.17152421176433563,-0.5892333984375,0.23082888126373291,-0.60528987646102905,-0.17181481420993805,-0.032420381903648376,0.163174107670784,-0.014126254245638847,-0.078461699187755585,-0.10310374945402145,0.1991073340177536,-0.23113667964935303,-0.082801610231399536,0.18708017468452454,0.2986266016960144,-0.040670160204172134,0.42125102877616882,0.15896522998809814,-0.026603046804666519,-1.1481741666793823,0.0026544639840722084,-0.058229990303516388,0.12058089673519135,0.31762850284576416,0.03857818990945816,-0.033135935664176941,-0.5309683084487915,-0.10070507973432541,0.54789400100708008,0.22346319258213043, 
  /* [0][2][][] */ -0.26596882939338684,-0.32073712348937988,-0.18492721021175385,-0.14120073616504669,0.0045603308826684952,0.29921531677246094,-0.027346314862370491,-0.10641150176525116,-0.13391484320163727,-0.087034426629543304,-0.072727300226688385,0.057128634303808212,0.57581651210784912,-29.910606384277344,-0.46205702424049377,-0.5776183009147644,-5.0532617568969727,-0.018980126827955246,0.2011716365814209,0.61991262435913086,0.21294285356998444,-0.24040915071964264,-0.058478038758039474,-0.084271699190139771,0.11467990279197693,-0.15646819770336151,-0.018401289358735085,-0.10229194164276123,1.0121380090713501,0.074518628418445587,0.1845443993806839,0.5814824104309082,1.1050866842269897,-0.011033382266759872,-0.13533267378807068,-0.065790586173534393,-0.069117896258831024,0.64458787441253662,-0.022132765501737595,0.12186051160097122,0.032272651791572571,0.22025276720523834,0.053841304033994675,-0.025014061480760574,0.88057827949523926,-0.21253116428852081,0.02983667328953743,0.19021008908748627, 0.38073942065238953,-0.22027194499969482,-0.48143208026885986,-0.35258552432060242,0.60393452644348145,0.15989983081817627,0.03858807310461998,-0.14451736211776733,0.17020820081233978,-0.10428830981254578,-0.1481955349445343,0.053553715348243713,0.62232935428619385,-6.0131850242614746,0.057274099439382553,0.84685903787612915,-2.8593630790710449,-0.032098017632961273,0.24394519627094269,0.97490251064300537,0.33292227983474731,-0.38643205165863037,-0.083928287029266357,-0.079805225133895874,0.32274577021598816,-0.1913316398859024,-0.032291661947965622,-0.17103663086891174,-0.67313730716705322,0.10157520323991776,-0.10613415390253067,1.0336945056915283,-0.18118093907833099,-0.019871460273861885,0.23872971534729004,0.044151559472084045,-0.092829182744026184,0.91896516084671021,-0.01846715435385704,-0.0055343876592814922,0.034694407135248184,0.18722103536128998,0.057208668440580368,-0.029792079702019691,1.1647155284881592,-0.27451017498970032,-0.10150036960840225,0.24567811191082001, -0.1240256130695343,0.087388329207897186,-0.22969743609428406,-0.14796735346317291,-0.58305585384368896,-0.16623777151107788,0.12547409534454346,-0.035902433097362518,0.20974378287792206,-0.006902479100972414,-0.059018775820732117,0.03131382167339325,0.2342606782913208,-10.07728099822998,0.4046589732170105,-0.2612265944480896,-10.878596305847168,-0.0048820651136338711,0.095558375120162964,0.49583902955055237,0.30145469307899475,-0.20408886671066284,-0.0053656883537769318,-0.0032924788538366556,0.14818447828292847,0.007592259906232357,-0.0060785766690969467,-0.10898689180612564,-0.17248214781284332,0.073715530335903168,-0.045941665768623352,0.36610156297683716,-0.91714060306549072,-0.01772429421544075,0.23503293097019196,0.020800434052944183,-0.014585064724087715,0.39251154661178589,0.033643092960119247,-0.15410785377025604,0.023608416318893433,0.20618265867233276,-0.018941428512334824,-0.0065867174416780472,0.57379001379013062,-0.093622587621212006,-0.033309981226921082,0.11325772106647491, 
};
const TfArray<4, int> tensor_dimension17 = { 4, { 1,3,3,48 } };
const MODEL_SECTION(EI_MODEL_SECTION) ALIGN(16) float tensor_data18[8] = { -5.675532341003418, -16.861625671386719, 39.852294921875, 28.996007919311523, 2.9642195701599121, 1.9780272245407104, 32.847599029541016, 6.4999570846557617, };
const TfArray<1, int> tensor_dimension18 = { 1, { 8 } };
const MODEL_SECTION(EI_MODEL_SECTION) ALIGN(16) float tensor_data19[1*3*3*48] = { 
  /* [0][0][][] */ 0.085474595427513123,-0.039356045424938202,0.1864309161901474,1.8737832307815552,0.024865737184882164,0.38864824175834656,-0.022060239687561989,0.23493637144565582,0.10411367565393448,0.066775791347026825,0.04074433445930481,0.071824200451374054,-0.11032178997993469,-0.10930372774600983,-0.18573401868343353,0.41331461071968079,-0.027308858931064606,0.12997812032699585,-0.0669412761926651,-1.0267385244369507,-0.066789641976356506,-0.25382342934608459,1.3265036344528198,-0.084718048572540283,-0.019129369407892227,0.041053615510463715,-0.14723864197731018,0.038305643945932388,-0.044986169785261154,0.24258521199226379,0.068710111081600189,0.84756731986999512,1.2096296548843384,0.23770557343959808,0.35213848948478699,-0.24170127511024475,0.027307856827974319,0.20790812373161316,-0.022070035338401794,0.0010374278062954545,0.1495322585105896,-0.18941004574298859,-0.05184100940823555,-0.063017591834068298,0.10746452957391739,0.014577547088265419,-0.064733006060123444,-0.05372997373342514, 2.4665677547454834,0.12568335235118866,0.13802574574947357,-2.1862795352935791,0.17719826102256775,0.41379645466804504,0.44752740859985352,0.088835284113883972,0.84035283327102661,1.0576874017715454,0.030070433393120766,0.41521108150482178,-0.67092347145080566,-0.2985014021396637,0.020517017692327499,0.37513124942779541,1.5853272676467896,-0.87539851665496826,-0.17520308494567871,-0.50669568777084351,-1.0464351177215576,0.28170594573020935,-1.1419495344161987,0.11949393898248672,0.12254598736763,0.49573826789855957,-0.87562292814254761,-0.39697647094726562,0.23502695560455322,1.1197340488433838,0.038884840905666351,-1.0669028759002686,0.33002397418022156,-0.52157324552536011,1.1885554790496826,0.080100506544113159,-0.77118009328842163,-0.28312137722969055,-0.073013253509998322,0.12138009071350098,-0.66934067010879517,-0.27308830618858337,-0.18497416377067566,0.01984700933098793,-0.22006966173648834,-0.04352492094039917,-1.1382337808609009,0.11472582817077637, -0.61197537183761597,-0.040987472981214523,0.069335825741291046,0.25157463550567627,-0.0057688369415700436,0.31042894721031189,0.17637145519256592,0.1465129554271698,0.18803854286670685,0.069289274513721466,-0.059081431478261948,0.30149933695793152,-0.19044320285320282,-0.0319056436419487,0.066682882606983185,0.19258321821689606,-1.2916332483291626,0.45013219118118286,-0.011350951157510281,0.69413065910339355,-0.32274353504180908,-0.1365581601858139,-0.19116364419460297,-0.055590745061635971,-0.028212716802954674,-0.4196912944316864,-0.075105257332324982,0.13369034230709076,-0.16070476174354553,0.26314851641654968,0.015904894098639488,-0.18865096569061279,0.47810918092727661,-0.20323368906974792,0.15065868198871613,-0.16602842509746552,-0.0052843051962554455,0.28740260004997253,0.54523706436157227,-0.013780939392745495,0.4259808361530304,0.10606150329113007,-0.096984349191188812,0.086904674768447876,-0.27485084533691406,0.015442759729921818,-0.021175641566514969,-0.031086472794413567, 
  /* [0][1][][] */ 2.4354770183563232,0.090373173356056213,0.0097189173102378845,-1.6891002655029297,0.086740210652351379,-0.12655936181545258,1.405022144317627,-0.13176891207695007,0.059841271489858627,0.072992756962776184,-0.05314939096570015,0.51483595371246338,-0.089755579829216003,-0.009511939249932766,0.073049008846282959,-1.5423548221588135,-0.0043360763229429722,-0.77715587615966797,-0.17377179861068726,-0.77446764707565308,0.10259908437728882,-0.83489257097244263,-1.3035100698471069,-0.15504761040210724,0.0346844382584095,0.69125372171401978,-0.40906187891960144,-0.5995173454284668,-0.080738969147205353,1.765769362449646,0.053132977336645126,-0.93232321739196777,1.0162209272384644,-0.45008820295333862,-0.025386828929185867,1.0833830833435059,-0.055140718817710876,0.35412618517875671,-0.54398822784423828,0.043261293321847916,-0.52875232696533203,-0.35451772809028625,0.24530048668384552,-0.65641283988952637,-0.28613308072090149,-0.078130155801773071,-0.11776319146156311,-0.02681950107216835, 0.51795864105224609,-1.6830055713653564,-1.1494721174240112,1.9735782146453857,-0.81778877973556519,-0.6064302921295166,-5.0251846313476562,-1.0515624284744263,-0.86410027742385864,-0.8032342791557312,0.55428946018218994,-1.2284551858901978,1.7037262916564941,1.6083400249481201,0.1427217572927475,-6.0657234191894531,-1.0393756628036499,1.9863249063491821,0.36822959780693054,-0.95810341835021973,1.3048981428146362,1.4403839111328125,1.1693887710571289,1.062127947807312,0.89371269941329956,-0.89509123563766479,-3.555732250213623,0.13333772122859955,-1.2629686594009399,-6.8458967208862305,0.40416315197944641,1.0924738645553589,-7.4737033843994141,1.0748275518417358,-0.27072411775588989,-0.35750943422317505,2.4765887260437012,-0.77012884616851807,1.6692852973937988,0.13446788489818573,1.0822027921676636,-0.22297608852386475,0.80025386810302734,0.94914287328720093,0.81501656770706177,-0.67349058389663696,0.90363991260528564,0.53885787725448608, 1.0492994785308838,0.06835714727640152,0.44241741299629211,-0.23165422677993774,0.034128870815038681,-0.28861403465270996,1.7632722854614258,0.15389703214168549,-0.16035443544387817,0.11945232748985291,-0.455426424741745,-0.076217502355575562,-0.0002353111922275275,-0.50526833534240723,0.52670580148696899,0.22326973080635071,0.78136062622070312,-1.0260082483291626,-0.20675179362297058,0.76707702875137329,0.14186652004718781,-0.51972049474716187,0.11221519857645035,-0.28047904372215271,0.0074947364628314972,0.040167327970266342,-1.0491428375244141,0.31946742534637451,0.20338939130306244,2.1517229080200195,0.0013761213049292564,0.023493487387895584,1.9344003200531006,-0.37814313173294067,0.080304071307182312,0.56618189811706543,-0.099156230688095093,0.39000385999679565,0.89875030517578125,-0.010390897281467915,-0.69087344408035278,0.024273701012134552,-0.53093928098678589,-0.23136407136917114,0.17334689199924469,-0.091359555721282959,-0.10018923133611679,0.026679109781980515, 
  /* [0][2][][] */ -1.028134822845459,-0.085998460650444031,0.23248971998691559,-0.28912663459777832,0.043012615293264389,0.16649933159351349,-1.4598275423049927,0.18659885227680206,0.054037395864725113,-0.19847817718982697,0.051165696233510971,0.31436264514923096,0.084932297468185425,-0.072861567139625549,-0.15918341279029846,0.8448147177696228,0.054085757583379745,0.34133878350257874,-0.04001135379076004,0.93927091360092163,0.061435922980308533,-0.36479714512825012,-0.1714022308588028,-0.10628317296504974,-0.022882608696818352,0.15258216857910156,-0.011299323290586472,0.23808678984642029,-0.09341537207365036,0.17567956447601318,0.20422711968421936,-0.27782118320465088,-1.0439994335174561,-0.37521761655807495,-0.30056729912757874,-0.3427295982837677,-0.016970224678516388,0.18595442175865173,0.10839878022670746,-0.023395568132400513,0.078698992729187012,-0.011850724928081036,0.26196759939193726,-0.27449750900268555,-0.22996698319911957,0.097948908805847168,-0.10256459563970566,0.086230501532554626, 1.3284792900085449,1.6633846759796143,0.68268024921417236,0.36420625448226929,0.10359657555818558,-0.096293613314628601,4.9416446685791016,0.29183414578437805,0.12434899061918259,-0.026580790057778358,0.18847572803497314,0.25361600518226624,-0.065140262246131897,-0.0094863921403884888,-0.37467309832572937,1.18070387840271,-0.72837918996810913,-0.88249784708023071,-0.10494320839643478,1.0931975841522217,-0.38619232177734375,0.55261915922164917,0.1207825243473053,0.15868681669235229,0.22208578884601593,-0.44806495308876038,-1.1304420232772827,0.13847512006759644,0.77094817161560059,0.048396427184343338,0.5507817268371582,0.18419191241264343,5.0621585845947266,-0.22674226760864258,0.069364748895168304,-0.31090915203094482,-0.49204868078231812,-0.10349639505147934,-0.17130497097969055,0.12536339461803436,-0.23252163827419281,-0.033328495919704437,-0.25329098105430603,0.33768454194068909,0.13049909472465515,-0.17693805694580078,0.061770379543304443,-0.64230740070343018, -0.80331689119338989,-0.053394295275211334,0.059031456708908081,-0.059837229549884796,0.031507205218076706,-0.02379859983921051,-2.4152379035949707,0.065520726144313812,-0.12279397249221802,-0.086396768689155579,-0.17415225505828857,-0.38507482409477234,0.26066106557846069,-0.1120319589972496,-0.035612039268016815,0.54643595218658447,0.40960207581520081,0.37111097574234009,-0.023320836946368217,-1.1426839828491211,0.24465775489807129,-0.11204490065574646,0.044199541211128235,-0.079214766621589661,-0.046285685151815414,0.070275172591209412,-0.28694537281990051,-0.25953754782676697,-0.14617039263248444,0.43903732299804688,0.023616466671228409,0.065602883696556091,-1.1739299297332764,0.73170965909957886,-0.34437742829322815,-0.19761982560157776,-0.093025550246238708,0.21926940977573395,0.32476392388343811,-0.064202651381492615,0.037271648645401001,0.024317951872944832,-0.23652377724647522,0.051893927156925201,-0.27389654517173767,0.70258277654647827,-0.044763922691345215,-0.020137939602136612, 
};
const TfArray<4, int> tensor_dimension19 = { 4, { 1,3,3,48 } };
const MODEL_SECTION(EI_MODEL_SECTION) ALIGN(16) float tensor_data20[8] = { -19.547124862670898, 19.631372451782227, -21.754789352416992, -21.736137390136719, 16.419626235961914, -2.9950780868530273, 21.388626098632812, 46.537620544433594, };
const TfArray<1, int> tensor_dimension20 = { 1, { 8 } };
const MODEL_SECTION(EI_MODEL_SECTION) ALIGN(16) float tensor_data21[1*3*3*48] = { 
  /* [0][0][][] */ 0.24196617305278778,-0.17297571897506714,0.59003210067749023,0.14175422489643097,0.3509274423122406,-0.11336720734834671,0.795989990234375,-0.30108258128166199,0.16817739605903625,-0.15146870911121368,-0.20651605725288391,0.16278831660747528,0.10589788109064102,-0.066495932638645172,-0.64163720607757568,-0.8277665376663208,0.85715252161026001,0.21009761095046997,0.2162586897611618,0.45623531937599182,0.22846116125583649,-0.48091110587120056,-0.41689443588256836,0.34152498841285706,-0.12936516106128693,-0.16838085651397705,-0.089798972010612488,-0.17849849164485931,-0.35089823603630066,0.33046209812164307,-0.36864155530929565,-0.78854286670684814,-0.032159343361854553,0.30067425966262817,0.091419793665409088,0.19918036460876465,-0.36126527190208435,0.1811901181936264,-0.22785122692584991,-0.12013116478919983,0.27634471654891968,-0.34589782357215881,0.18952690064907074,0.21933376789093018,-0.1234617680311203,0.08769766241312027,0.29367232322692871,-0.042171947658061981, 0.28877940773963928,-0.1819501668214798,0.7712700366973877,0.1712750643491745,-0.50810492038726807,-0.22763369977474213,-0.41973701119422913,-0.39675959944725037,0.26919430494308472,-0.17472344636917114,-0.16486723721027374,0.2528870701789856,0.16422487795352936,-0.17130295932292938,-0.85464954376220703,0.8381463885307312,-0.3254493772983551,0.25812339782714844,0.36626681685447693,0.74283748865127563,0.29203736782073975,-0.75407707691192627,0.26396563649177551,0.48214384913444519,-0.20984372496604919,-0.32306259870529175,-0.096317939460277557,-0.22445422410964966,0.29540237784385681,0.42167675495147705,-0.1758364737033844,-0.87962263822555542,-0.20587524771690369,0.57992130517959595,0.10767952352762222,0.25877153873443604,-0.45265510678291321,0.28119111061096191,-0.38315331935882568,-0.085303314030170441,0.42187756299972534,-0.44192805886268616,0.2751946747303009,0.31661635637283325,-0.096089325845241547,-0.98901760578155518,0.36019209027290344,-0.13188843429088593, 0.12238503247499466,-0.087180197238922119,0.41811373829841614,0.075387418270111084,0.11773328483104706,-0.13807603716850281,-0.34942996501922607,-0.18275430798530579,0.11718210577964783,-0.052087876945734024,0.012635183520615101,0.11649210751056671,0.059452168643474579,-0.12481001019477844,-0.49476021528244019,-0.018238583579659462,-0.45714563131332397,0.09903474897146225,0.15243123471736908,0.40877237915992737,0.11435297131538391,-0.35527750849723816,0.15651929378509521,0.16946163773536682,-0.11511887609958649,-0.18978425860404968,-0.061862919479608536,-0.061920803040266037,0.16170403361320496,0.16121058166027069,0.51188242435455322,-0.61900782585144043,-0.20101805031299591,0.31886228919029236,0.045826636254787445,0.10445552319288254,-0.16421103477478027,0.13141962885856628,-0.17034848034381866,-0.055661167949438095,0.22194021940231323,-0.18944761157035828,0.11367258429527283,0.15060921013355255,-0.0063975485973060131,-0.066593386232852936,0.13997253775596619,-0.09350837767124176, 
  /* [0][1][][] */ 0.32404607534408569,-0.20901957154273987,-0.2496882826089859,0.18893967568874359,0.36478713154792786,-0.27426433563232422,0.95033526420593262,-0.41865268349647522,0.24492953717708588,-0.19538186490535736,-0.18461588025093079,0.28110864758491516,0.17167359590530396,-0.17434924840927124,-0.118882916867733,-1.1707354784011841,1.0672997236251831,0.28751948475837708,0.32752507925033569,-0.2185041606426239,0.28701227903366089,0.70819288492202759,-0.64356428384780884,0.48643118143081665,0.30425581336021423,-0.31520962715148926,-0.13083170354366302,-0.2768876850605011,-0.66788548231124878,0.46105021238327026,-0.40865015983581543,-0.063712351024150848,-0.21270880103111267,0.51482051610946655,0.14286054670810699,0.29873466491699219,-0.46729972958564758,0.26931187510490417,-0.36983799934387207,0.46358752250671387,0.46344977617263794,-0.47356829047203064,0.29079163074493408,0.32115572690963745,-0.11476142704486847,0.83668982982635498,0.36413848400115967,-0.11525990068912506, 0.44920557737350464,-0.23944908380508423,-0.39786690473556519,0.25679135322570801,-0.83714085817337036,-0.42515891790390015,-0.67446047067642212,-0.59990459680557251,0.35618487000465393,-0.21917283535003662,-0.32892182469367981,0.4375012218952179,0.26329019665718079,-0.20099768042564392,-0.20058657228946686,0.88623082637786865,-0.55689382553100586,0.34141445159912109,0.5656440258026123,-0.29106435179710388,0.43341445922851562,0.83415031433105469,0.34535515308380127,0.85227251052856445,0.5256381630897522,-0.5306515097618103,-0.17769365012645721,-0.35745474696159363,0.28255769610404968,0.67657274007797241,-0.1663973331451416,0.10630309581756592,-0.30570760369300842,0.92639851570129395,0.17081321775913239,0.39484354853630066,-0.70193493366241455,0.43225297331809998,-0.59027951955795288,0.6632920503616333,0.70295727252960205,-0.59578460454940796,0.42382889986038208,0.4517667293548584,-0.16536755859851837,-0.087945498526096344,0.49149802327156067,-0.16090036928653717, 0.22282662987709045,-0.14594914019107819,-0.20458558201789856,0.13273438811302185,0.24267582595348358,-0.20800043642520905,-0.35833624005317688,-0.29230943322181702,0.15766766667366028,-0.07290341705083847,-0.15469710528850555,0.1985953152179718,0.099684812128543854,-0.084102556109428406,-0.15112040936946869,0.092940598726272583,-0.53013968467712402,0.13471028208732605,0.25685521960258484,-0.17244228720664978,0.19384527206420898,0.42307528853416443,0.25418102741241455,0.42716842889785767,0.26866951584815979,-0.26991084218025208,-0.087015412747859955,-0.1243407279253006,0.19059468805789948,0.28949916362762451,0.74199962615966797,0.097682543098926544,-0.14981207251548767,0.50171422958374023,0.064229227602481842,0.15171314775943756,-0.27126032114028931,0.2042468786239624,-0.27260646224021912,0.29163944721221924,0.3326699435710907,-0.27087226510047913,0.17908380925655365,0.21852430701255798,-0.079588636755943298,-0.52099138498306274,0.22676639258861542,-0.072440966963768005, 
  /* [0][2][][] */ 0.15588086843490601,-0.095442265272140503,-0.27691537141799927,0.099256627261638641,0.17598500847816467,-0.1764979362487793,0.47183799743652344,-0.19855780899524689,0.11490840464830399,-0.12329389899969101,-0.012586771510541439,0.1345711350440979,0.11462303251028061,-0.11461261659860611,0.74177193641662598,-0.73008358478546143,0.61521142721176147,0.13451202213764191,0.15065985918045044,-0.17448696494102478,0.089371338486671448,-0.068594321608543396,-0.3902951180934906,0.20329031348228455,-0.096656687557697296,-0.18184448778629303,-0.067729458212852478,-0.13694517314434052,-0.38981664180755615,0.16785714030265808,-0.24438087642192841,0.61731827259063721,-0.17709192633628845,0.26301977038383484,0.06584930419921875,0.13067542016506195,-0.14154879748821259,0.12664251029491425,-0.19372794032096863,-0.45776465535163879,0.26328131556510925,-0.2324659675359726,0.13271714746952057,0.15640853345394135,-0.02967355027794838,0.12443853169679642,0.15635278820991516,-0.094353921711444855, 0.25388443470001221,-0.13946966826915741,-0.2934202253818512,0.16205227375030518,-0.37520715594291687,-0.21301867067813873,-0.53795111179351807,-0.31855678558349609,0.14012438058853149,-0.13262520730495453,-0.17160192131996155,0.20775943994522095,0.15386220812797546,-0.075292348861694336,1.1364222764968872,0.29110461473464966,-0.39750850200653076,0.15868794918060303,0.27283370494842529,-0.24851436913013458,0.1880258172750473,-0.11587772518396378,0.20885942876338959,0.44611230492591858,-0.19992932677268982,-0.27671706676483154,-0.10803588479757309,-0.17300690710544586,0.16945920884609222,0.32554417848587036,-0.13763077557086945,0.80430763959884644,-0.13336475193500519,0.47216594219207764,0.077746070921421051,0.17888526618480682,-0.27122059464454651,0.20981432497501373,-0.30719313025474548,-0.55498975515365601,0.37706834077835083,-0.31638720631599426,0.19911989569664001,0.22006863355636597,-0.11190907657146454,0.38251256942749023,0.24151279032230377,-0.066915407776832581, 0.14345192909240723,-0.073786601424217224,-0.16197584569454193,0.091863997280597687,0.18429771065711975,-0.06615891307592392,-0.12733972072601318,-0.15736891329288483,0.040852677077054977,-0.043589308857917786,-0.13198889791965485,0.095699496567249298,0.064913563430309296,0.0076324585825204849,0.59947693347930908,0.21994325518608093,-0.29816630482673645,0.058109086006879807,0.12472128868103027,-0.18572714924812317,0.094518691301345825,-0.00084286706987768412,0.20086325705051422,0.27883616089820862,-0.10086765140295029,-0.11869295686483383,-0.067985810339450836,-0.066734276711940765,0.17670756578445435,0.17740310728549957,0.35950386524200439,0.45536181330680847,0.0020365042146295309,0.24576108157634735,0.021181972697377205,0.067945949733257294,-0.12028686702251434,0.10105419158935547,-0.13201852142810822,-0.29037141799926758,0.15599751472473145,-0.15183287858963013,0.082874424755573273,0.10367677360773087,-0.081816121935844421,0.070889748632907867,0.12006675451993942,-0.0038768523372709751, 
};
const TfArray<4, int> tensor_dimension21 = { 4, { 1,3,3,48 } };
const MODEL_SECTION(EI_MODEL_SECTION) ALIGN(16) float tensor_data22[16] = { -27.737625122070312, 2.6675641536712646, 1.597548246383667, -8.9733657836914062, 0.082325384020805359, -7.6237998008728027, -13.472043037414551, -25.851524353027344, 1.5124326944351196, 15.851059913635254, 27.995582580566406, -4.5099644660949707, -3.440502405166626, -29.887748718261719, 18.311550140380859, -26.116657257080078, };
const TfArray<1, int> tensor_dimension22 = { 1, { 16 } };
const MODEL_SECTION(EI_MODEL_SECTION) ALIGN(16) float tensor_data23[1*3*3*96] = { 
  /* [0][0][][] */ -0.170960932970047,0.03103865310549736,-0.24621713161468506,0.19817355275154114,-0.13180938363075256,0.15373969078063965,-0.90835779905319214,-0.19314084947109222,0.086619459092617035,-0.13170105218887329,0.66864573955535889,-0.11461946368217468,0.0098177185282111168,-0.1938353031873703,-0.026079067960381508,0.34037324786186218,0.02107994444668293,0.21123741567134857,-0.090173520147800446,0.037394195795059204,0.148696169257164,0.033577222377061844,0.21923287212848663,-0.50671595335006714,0.020967498421669006,0.17747385799884796,0.27696523070335388,0.34300976991653442,0.1021784320473671,0.057494267821311951,0.15437217056751251,0.33453139662742615,-0.047881994396448135,0.13342370092868805,0.089570134878158569,-0.14753615856170654,0.1047278419137001,0.26036170125007629,-0.14043979346752167,-0.18739905953407288,0.14029914140701294,0.13933645188808441,0.44073700904846191,0.11940352618694305,-0.60916078090667725,-0.14059245586395264,0.27369055151939392,-0.053980518132448196,-0.041843429207801819,-0.17387837171554565,-0.06009625643491745,-0.043729644268751144,0.62240159511566162,0.083598092198371887,-0.11428637802600861,0.045853737741708755,-0.041031245142221451,-0.27343818545341492,0.14319673180580139,-0.10897110402584076,0.35263249278068542,-0.013107374310493469,1.4343458414077759,0.15448527038097382,-0.12638856470584869,-0.089337341487407684,0.045469388365745544,-0.13943806290626526,1.0040149688720703,0.41368606686592102,0.033229660242795944,-0.036894261837005615,0.46399587392807007,-0.22534604370594025,0.45569717884063721,0.051965679973363876,0.33971872925758362,-0.35306382179260254,0.40415000915527344,0.53365272283554077,0.0092011438682675362,0.20741666853427887,0.68358010053634644,-0.079071931540966034,0.25392436981201172,0.11635743826627731,-0.20125675201416016,-0.14984658360481262,0.35298460721969604,-0.036104179918766022,-0.12660586833953857,0.37297245860099792,0.0011636499548330903,0.48468250036239624,-1.6691786050796509,0.040350466966629028, -0.47516611218452454,0.064402788877487183,-0.10082516074180603,0.018397701904177666,0.4236929714679718,-0.05924307182431221,-0.14759643375873566,-0.46297135949134827,0.1959986537694931,0.31200513243675232,-0.86083686351776123,-0.062193889170885086,-0.066605314612388611,-0.28667432069778442,0.034978784620761871,0.57439857721328735,0.086108207702636719,-0.37577661871910095,-0.040173180401325226,-0.16954831779003143,0.14769989252090454,-0.98623430728912354,0.89899730682373047,0.40006253123283386,-0.60346651077270508,-0.33393442630767822,-0.67768871784210205,-0.11728464066982269,0.13126696646213531,0.16692075133323669,-0.31631991267204285,0.12277794629335403,0.77965289354324341,0.057720333337783813,-0.12405861169099808,-0.011734561063349247,-0.50858420133590698,0.68048536777496338,-0.15148791670799255,-0.90852677822113037,0.06000610813498497,-0.27528095245361328,-0.48709917068481445,0.097402796149253845,0.33670997619628906,-0.31769430637359619,1.4042209386825562,-0.47396644949913025,-0.29169031977653503,0.42060631513595581,0.36136427521705627,0.052992824465036392,0.4958382248878479,-0.91115862131118774,0.36818432807922363,1.1310774087905884,0.50073695182800293,0.32060131430625916,-0.51454579830169678,0.30506730079650879,1.6436667442321777,0.24344249069690704,0.042883388698101044,-0.12279099225997925,0.38633343577384949,-0.31564801931381226,-0.36364129185676575,-0.0029731809627264738,0.56670737266540527,-0.34376534819602966,-0.178829625248909,0.2500796914100647,-0.27928707003593445,-0.33494049310684204,0.6912723183631897,-0.033604178577661514,-0.62112724781036377,-0.16502907872200012,-0.44484525918960571,0.54411226511001587,-0.51392835378646851,0.92021769285202026,-0.084478177130222321,0.049057096242904663,-0.070765651762485504,0.18947920203208923,0.39423704147338867,-0.32075196504592896,-0.28770843148231506,0.25972083210945129,-0.11622957140207291,0.33032265305519104,-1.035085916519165,-0.7675018310546875,18.110464096069336,-0.43259692192077637, 0.00041713958489708602,-0.019689813256263733,-0.28145009279251099,-0.14101412892341614,0.069140195846557617,0.12123969197273254,0.55367124080657959,0.08272196352481842,-0.015250392258167267,-0.043565187603235245,0.029383124783635139,0.78382545709609985,-0.0021124063059687614,-0.30461078882217407,-0.069427207112312317,0.042716775089502335,-0.059943202883005142,0.21947388350963593,-0.045407738536596298,0.18756179511547089,0.013482006266713142,0.26093217730522156,0.16260193288326263,-0.49014401435852051,0.0081057064235210419,-0.33112412691116333,0.057949300855398178,0.08825085312128067,-0.029402300715446472,0.023311028257012367,0.30011463165283203,-0.56024932861328125,0.28584572672843933,0.08377876877784729,0.082324877381324768,-0.2256876528263092,0.26812565326690674,0.017555141821503639,-0.071346677839756012,-0.15237213671207428,0.051888268440961838,0.047120016068220139,-0.25823619961738586,0.054560605436563492,0.16374547779560089,-0.082323238253593445,0.22558419406414032,0.0072378306649625301,0.023977000266313553,-0.070571981370449066,0.042345643043518066,-0.034870851784944534,0.056980572640895844,0.090662956237792969,-0.077686354517936707,0.17419390380382538,-0.10528874397277832,0.34162804484367371,0.031132791191339493,-0.0081601906567811966,0.14147917926311493,-0.12482269108295441,0.029407119378447533,-0.10466891527175903,-0.24776756763458252,-0.14005140960216522,0.12171360105276108,-0.1329168826341629,-1.5957365036010742,-0.073934160172939301,0.41683870553970337,-0.093938626348972321,-0.73920965194702148,-0.15692400932312012,-0.076580449938774109,0.19233565032482147,0.2120978981256485,-0.03104366734623909,0.081277966499328613,0.092353403568267822,-0.10049346089363098,0.34526705741882324,-0.19292706251144409,-0.016726946458220482,-0.26616686582565308,0.08331017941236496,0.18174947798252106,0.28968271613121033,-0.25492456555366516,-0.08620249480009079,0.22567462921142578,-0.054100349545478821,0.14655701816082001,0.15388157963752747,-1.3069465160369873,-0.15714921057224274, 
  /* [0][1][][] */ -0.39896181225776672,0.30220642685890198,-0.21788635849952698,0.06977389007806778,-0.68323832750320435,-0.10790801793336868,-0.15591807663440704,-0.15921738743782043,0.13206827640533447,2.1942105293273926,-0.29812070727348328,-0.26819577813148499,-0.11741209775209427,-0.58654743432998657,-0.048623725771903992,0.39697688817977905,0.60115629434585571,-0.29482316970825195,-0.2271951287984848,-0.14221769571304321,0.11742667108774185,-1.3019416332244873,-0.20895896852016449,0.23572386801242828,-0.34634563326835632,-0.50859647989273071,-0.81989419460296631,-0.036721296608448029,0.17877641320228577,0.16994501650333405,-0.32147467136383057,0.19117128849029541,-0.82463383674621582,-0.37894600629806519,-0.51697593927383423,0.029364096000790596,1.4089269638061523,-0.017952434718608856,-0.12141595780849457,0.33328217267990112,-0.13701325654983521,1.2919373512268066,0.0076027186587452888,-0.020778674632310867,0.24433025717735291,-0.1283237636089325,-0.1384522020816803,-0.34111946821212769,0.48248210549354553,0.37467396259307861,-0.027027642354369164,0.15103287994861603,0.56233161687850952,0.1398208886384964,-0.44206824898719788,-0.33406192064285278,0.42563271522521973,0.073837652802467346,-0.63307148218154907,0.46175187826156616,-0.46522974967956543,-0.62937986850738525,0.2387138158082962,0.74593079090118408,-0.54919105768203735,-0.29772087931632996,-0.3245091438293457,0.34459283947944641,-0.55528175830841064,1.4676159620285034,-0.17206592857837677,0.29078039526939392,-0.20925924181938171,-0.37657955288887024,0.24255388975143433,0.091063357889652252,-0.7605888843536377,-0.19573065638542175,1.7407406568527222,0.39212712645530701,0.99176794290542603,0.52025437355041504,0.030217515304684639,-0.0084716100245714188,0.84915214776992798,0.11572485417127609,-0.68546879291534424,0.37896728515625,-0.38981243968009949,-0.17734746634960175,-0.93377137184143066,0.18236598372459412,0.7801438570022583,2.5316498279571533,22.194515228271484,-0.20342487096786499, 1.2381962537765503,0.66059118509292603,1.5387845039367676,0.23997294902801514,-0.37098053097724915,-0.86114639043807983,1.8609163761138916,0.086606070399284363,0.6481737494468689,-2.9257285594940186,0.11068176478147507,-1.5917172431945801,-0.40520662069320679,3.0550847053527832,0.91973799467086792,0.79601758718490601,-0.07570253312587738,-1.6058353185653687,-0.15390652418136597,-1.3757239580154419,0.24919334053993225,0.23872420191764832,-0.48156294226646423,1.9443972110748291,1.2419798374176025,1.351966381072998,-0.35126733779907227,-0.89803057909011841,0.60593706369400024,0.586570143699646,-0.82402682304382324,0.89303344488143921,-0.054053869098424911,-0.6384614109992981,-1.1347115039825439,1.251278281211853,-2.7529644966125488,-0.2405095100402832,0.22960332036018372,0.78701102733612061,-0.9116818904876709,-1.8874984979629517,2.0610630512237549,0.87761682271957397,0.91132521629333496,-0.29146775603294373,-1.1942886114120483,1.35490882396698,-0.051336530596017838,1.0812510251998901,-0.94507414102554321,-0.92771869897842407,-1.6179157495498657,1.8387565612792969,1.5368843078613281,-2.5396173000335693,1.7428277730941772,-0.97989749908447266,-0.21693797409534454,0.14653836190700531,-1.3709895610809326,-0.19478997588157654,-0.79784578084945679,-0.40164715051651001,1.1617631912231445,1.0564534664154053,-0.2781963050365448,0.34300696849822998,1.9227604866027832,-1.2221848964691162,-1.2706860303878784,0.6905817985534668,-0.24527253210544586,0.87599676847457886,-0.83843100070953369,-1.4057343006134033,-2.6867306232452393,0.34793472290039062,-1.0209516286849976,1.0769639015197754,-0.33284014463424683,1.8855613470077515,0.42733544111251831,0.70852339267730713,-0.24819739162921906,-0.5053059458732605,-0.1819072961807251,-0.84664976596832275,-1.2968707084655762,-0.62862324714660645,-0.20832976698875427,-0.58708852529525757,-0.18414551019668579,-3.1332144737243652,-98.58331298828125,0.40077680349349976, -0.23606717586517334,0.34051027894020081,-0.46335130929946899,0.0035098495427519083,1.0347729921340942,0.47642415761947632,-0.30883288383483887,0.18100975453853607,0.026209482923150063,0.54582899808883667,-0.084417156875133514,-0.055398505181074142,-0.097962461411952972,-0.72346585988998413,-0.08698146790266037,-0.039252728223800659,-0.49984961748123169,-0.27191656827926636,-0.32254573702812195,0.41552960872650146,0.061922833323478699,0.8023640513420105,-0.092190541326999664,-1.7724146842956543,-0.33340492844581604,-0.43809330463409424,0.79372215270996094,0.51527214050292969,0.04826170951128006,0.16697721183300018,0.47085261344909668,0.056076169013977051,0.801707923412323,-0.23963980376720428,1.1517472267150879,-0.036998476833105087,1.1855523586273193,0.023501267656683922,-0.22539037466049194,0.093478620052337646,0.25861257314682007,0.35404738783836365,-0.37772396206855774,0.0059021748602390289,-0.17057034373283386,-0.1321626603603363,-0.14277197420597076,-0.45558026432991028,0.30652141571044922,0.12399653345346451,-0.084851332008838654,0.28968602418899536,-0.075588732957839966,-0.050165649503469467,-0.9181067943572998,-0.26846194267272949,0.3261171281337738,0.15569466352462769,0.64776080846786499,-0.32075002789497375,0.031438674777746201,0.90961748361587524,0.0050652134232223034,-0.21750135719776154,-1.019490122795105,-0.23028960824012756,-0.28758853673934937,0.27293720841407776,0.22161297500133514,-0.18673017621040344,1.1380233764648438,0.12928405404090881,-0.095947295427322388,-0.38828986883163452,0.077077843248844147,0.5205761194229126,-0.61170709133148193,-0.019938068464398384,-0.58780503273010254,-0.027813764289021492,-0.35741904377937317,0.11439569294452667,0.25168526172637939,0.13452696800231934,-0.5935853123664856,0.13973681628704071,0.91368460655212402,-0.37013936042785645,0.32384794950485229,-0.11346463859081268,1.1654254198074341,-0.048133987933397293,-0.91913068294525146,0.85511016845703125,26.128778457641602,0.063015252351760864, 
  /* [0][2][][] */ -0.044078931212425232,-0.20741201937198639,-0.25803297758102417,-0.11700455844402313,-0.029322480782866478,0.095065318048000336,0.5814669132232666,0.11735416203737259,-0.0088238213211297989,0.21917960047721863,-0.1348198801279068,0.65584850311279297,0.089470520615577698,-0.80546385049819946,-0.048522245138883591,0.046867098659276962,0.19388537108898163,0.034962713718414307,0.035319164395332336,0.23544052243232727,-0.017672764137387276,0.31701743602752686,-0.12228701263666153,-0.38665935397148132,0.01541469432413578,-0.25776347517967224,0.057089749723672867,0.02089160680770874,-0.043814148753881454,-0.035843450576066971,0.31941568851470947,-0.53140044212341309,-0.24852085113525391,0.33153268694877625,-0.25630074739456177,-0.25066491961479187,0.66398268938064575,-0.19053564965724945,-0.15220145881175995,0.11960853636264801,0.065075196325778961,0.14479275047779083,-0.55574321746826172,0.13968297839164734,0.09116102010011673,-0.19443424046039581,-0.13455791771411896,-0.012785801663994789,-0.036890331655740738,0.05086786299943924,0.1232089027762413,-0.055393259972333908,0.093299932777881622,0.023783298209309578,-0.26486292481422424,0.12631030380725861,-0.019943302497267723,0.33672380447387695,-0.25098374485969543,0.12611281871795654,-0.066692560911178589,-0.086436823010444641,0.05486738309264183,0.095333948731422424,-0.051281493157148361,-0.084556631743907928,0.087048009037971497,-0.1395648866891861,-0.85893422365188599,0.13076889514923096,-0.20024329423904419,-0.062799125909805298,-0.69944345951080322,-0.22014883160591125,-0.0020760155748575926,0.19306199252605438,0.30182230472564697,-0.031733721494674683,0.77560430765151978,0.1435883492231369,0.17084899544715881,0.32217216491699219,-0.21560345590114594,0.084361277520656586,0.081186734139919281,0.10193929076194763,-0.14832489192485809,0.081745415925979614,0.039817798882722855,0.1205853670835495,0.20828469097614288,-0.027320992201566696,0.15225699543952942,0.99440556764602661,-5.1626152992248535,-0.10440497845411301, -0.2726154625415802,-0.050290685147047043,-0.32970473170280457,0.044089775532484055,-0.36754578351974487,0.49979591369628906,-0.35403728485107422,0.2431957870721817,0.026454316452145576,-0.13104386627674103,0.36937323212623596,-0.14170056581497192,0.4819742739200592,-0.15311218798160553,-0.12732669711112976,-0.10849960148334503,-0.0079508768394589424,-0.49468573927879333,-0.14095084369182587,0.25871896743774414,-0.046983677893877029,0.81841135025024414,-0.31939738988876343,-1.6990336179733276,-0.46628618240356445,-0.50588881969451904,0.65310430526733398,0.4855189323425293,0.061814747750759125,0.20447747409343719,0.3505668044090271,-0.015830691903829575,-0.78689390420913696,0.31453582644462585,-0.1363961398601532,-0.22994716465473175,-0.62442725896835327,-0.14846542477607727,-0.30464720726013184,-0.023222703486680984,0.32056808471679688,-0.19699613749980927,-0.2430591881275177,0.25828421115875244,-0.18954560160636902,-0.11068285256624222,-0.20083145797252655,-0.51117986440658569,-0.23124979436397552,0.2302335798740387,0.50893199443817139,0.18067090213298798,-0.14571945369243622,-1.1489883661270142,0.35849228501319885,1.04510498046875,0.22991248965263367,0.19532892107963562,0.38175898790359497,-0.19606511294841766,0.25646877288818359,-0.40808677673339844,-0.093869425356388092,-0.0018691100412979722,0.17800986766815186,-0.21846988797187805,-0.48690560460090637,-0.14928023517131805,-0.16645652055740356,-0.30109351873397827,-0.62521684169769287,0.12044297158718109,0.21182052791118622,-0.31925153732299805,-0.20144827663898468,-0.079399898648262024,-0.94891822338104248,0.066452033817768097,-0.76191151142120361,0.014409858733415604,0.3776954710483551,0.52270287275314331,0.1001400500535965,0.056823529303073883,0.036425944417715073,0.24890562891960144,-0.6665579080581665,1.0112656354904175,0.16029548645019531,0.62006908655166626,-0.27799290418624878,-0.087102606892585754,0.9190516471862793,-0.53014677762985229,36.021484375,0.28706514835357666, -0.092447347939014435,-0.17519073188304901,-0.31458398699760437,0.054067462682723999,0.10287196189165115,0.43564009666442871,-0.62583291530609131,0.049032129347324371,0.019675083458423615,-0.13740664720535278,0.004481797106564045,0.16848573088645935,0.042759440839290619,-1.1991560459136963,-0.064907647669315338,-0.073883868753910065,-0.20990417897701263,-0.07129572331905365,0.047279171645641327,0.21135632693767548,-0.046363316476345062,0.062379080802202225,-0.1509568840265274,0.055663559585809708,-0.038171268999576569,0.2029951810836792,-0.019530428573489189,0.35841512680053711,-0.0079153310507535934,-0.027845120057463646,0.22060099244117737,0.19980983436107635,0.11707040667533875,0.20978344976902008,0.17535194754600525,-0.2268766462802887,-0.13788695633411407,-0.14432202279567719,-0.070702657103538513,0.049093235284090042,0.080724820494651794,-0.16386272013187408,0.35301220417022705,0.066429011523723602,-0.52965331077575684,-0.081768594682216644,-0.14403034746646881,0.042683690786361694,-0.0082116499543190002,-0.13889123499393463,-0.007362013217061758,-0.028024986386299133,-0.11186869442462921,0.12947894632816315,-0.21020413935184479,-0.087504126131534576,-0.022938543930649757,-0.38612356781959534,0.068261705338954926,-0.10300178825855255,-0.27584484219551086,0.35136198997497559,0.10305410623550415,-0.17264746129512787,-0.091389454901218414,-0.015155695378780365,0.13781318068504333,-0.14489668607711792,0.67584675550460815,0.08339652419090271,0.53983443975448608,-0.11604899168014526,0.17965400218963623,-0.38216045498847961,-0.11638291925191879,0.24026106297969818,0.22556649148464203,0.031335733830928802,-0.069828644394874573,0.17842254042625427,-0.23697347939014435,0.46699795126914978,0.48214530944824219,-0.079253099858760834,-0.11337247490882874,0.21511852741241455,0.27659982442855835,-0.066917955875396729,1.1063941717147827,0.055824264883995056,0.020201193168759346,-0.09218994528055191,0.071183234453201294,-0.55991703271865845,-4.9920001029968262,-0.17167043685913086, 
};
const TfArray<4, int> tensor_dimension23 = { 4, { 1,3,3,96 } };
const MODEL_SECTION(EI_MODEL_SECTION) ALIGN(16) float tensor_data24[16] = { -1.4282405376434326, -1.8299404382705688, -3.1868410110473633, 6.6595873832702637, 8.6007709503173828, 1.4103785753250122, -1.5881750583648682, -1.7083514928817749, 5.1663517951965332, 1.0231430530548096, 9.2347412109375, 13.826417922973633, -4.1967387199401855, 5.4488611221313477, 17.04908561706543, -7.5628714561462402, };
const TfArray<1, int> tensor_dimension24 = { 1, { 16 } };
const MODEL_SECTION(EI_MODEL_SECTION) ALIGN(16) float tensor_data25[1*3*3*96] = { 
  /* [0][0][][] */ -0.2647373378276825,-0.2934228777885437,-0.056221853941679001,1.6779557466506958,0.25716236233711243,0.73366928100585938,0.13868257403373718,-0.23998932540416718,-0.20913030207157135,-0.13297413289546967,-0.16058783233165741,-0.027000529691576958,-0.34784087538719177,-0.0043114847503602505,0.90993708372116089,0.0017303955974057317,-0.075421489775180817,-0.39987102150917053,0.21393059194087982,0.069122917950153351,0.053172718733549118,-0.21953944861888885,0.83884668350219727,0.017413979396224022,-0.3570142388343811,0.04200337827205658,0.40582939982414246,-0.24766373634338379,-0.40057304501533508,-2.8182988166809082,0.88341444730758667,0.26512244343757629,0.061648588627576828,0.19989100098609924,0.78881359100341797,-0.33788624405860901,-0.43837100267410278,-0.085707120597362518,0.38134816288948059,-0.053331077098846436,-0.1647254079580307,0.35378473997116089,-1.908995509147644,0.23147298395633698,0.43897286057472229,-0.2969106137752533,0.20368419587612152,0.67579466104507446,-0.71914434432983398,0.30734822154045105,-0.41877207159996033,0.18172383308410645,0.044212333858013153,-0.038589276373386383,0.19421620666980743,0.243234783411026,-0.60234487056732178,-1.1988195180892944,-0.11891597509384155,-0.14367873966693878,-0.13654866814613342,0.011425585485994816,0.046003028750419617,0.26793995499610901,0.46203994750976562,-0.15617501735687256,0.971088707447052,0.17575760185718536,-0.07201702892780304,0.080745920538902283,0.19688062369823456,0.6374669075012207,0.32415717840194702,0.1451600193977356,0.6533927321434021,-0.0026601252611726522,-0.067168563604354858,0.057349704205989838,0.3463403582572937,-0.043165199458599091,-0.17475445568561554,0.18509708344936371,-0.19826491177082062,0.2686840295791626,0.33057689666748047,0.10428635030984879,-0.27548873424530029,-0.45205774903297424,0.00016588078869972378,-0.20917849242687225,-0.26119831204414368,-0.043741751462221146,0.018579985946416855,-0.12429390847682953,-0.20445093512535095,0.3099837601184845, 0.71148961782455444,-0.52029681205749512,0.43213915824890137,1.3897221088409424,-0.50178009271621704,1.3235498666763306,0.073185756802558899,-0.47798973321914673,0.95049542188644409,0.028281312435865402,-0.18686716258525848,0.71678894758224487,1.4818956851959229,-0.91243690252304077,-0.32610282301902771,0.096238486468791962,0.089841216802597046,1.138597846031189,1.042660117149353,-0.34975099563598633,0.38223043084144592,-0.13603571057319641,0.53268736600875854,0.22650313377380371,-0.54837560653686523,-0.5806310772895813,-0.53710561990737915,-0.30120974779129028,-0.17867735028266907,1.0173276662826538,-1.3655332326889038,-0.20917926728725433,-0.47660595178604126,0.39167734980583191,-1.6391267776489258,-1.6318696737289429,-0.63858556747436523,-0.12135586142539978,-0.65448683500289917,0.37564581632614136,-0.011581603437662125,1.6670622825622559,2.2450826168060303,0.26696169376373291,-0.88885796070098877,-0.49803411960601807,-0.59835517406463623,-0.72434151172637939,-0.61547958850860596,-0.75762283802032471,0.70896977186203003,0.77806359529495239,0.80302011966705322,-0.19253957271575928,0.55216497182846069,0.41735762357711792,-0.31272593140602112,1.0067348480224609,-0.15509749948978424,-0.84364992380142212,-0.57352918386459351,-0.79625862836837769,-0.27561420202255249,0.48650833964347839,0.49662566184997559,-0.3765375018119812,0.34872382879257202,0.38681650161743164,-0.69630217552185059,0.16595402359962463,-0.17719766497612,0.45407712459564209,1.6478978395462036,0.82326871156692505,0.29381972551345825,0.21942465007305145,0.0073431767523288727,0.1942177414894104,-0.087442755699157715,0.36079847812652588,0.78120207786560059,1.5918072462081909,0.94168585538864136,-0.31420722603797913,-0.02385757677257061,0.39440068602561951,-0.40858021378517151,3.6463713645935059,-1.3392874002456665,-0.67219454050064087,0.077936910092830658,-0.1382623016834259,-0.72808200120925903,-0.61529529094696045,-0.51892179250717163,1.2831127643585205, -0.42351388931274414,-0.049190443009138107,0.17169269919395447,-1.0834770202636719,0.1754780113697052,-0.2619272768497467,0.11535654962062836,-0.030276022851467133,1.0981853008270264,-0.26226788759231567,-0.2922770082950592,0.10274890065193176,-0.23156078159809113,-0.054533157497644424,-0.21541006863117218,-0.09174618124961853,-0.070344261825084686,-0.1517258882522583,0.052263353019952774,-0.0098292948678135872,-0.068824276328086853,-0.17535573244094849,0.19598983228206635,-0.0049639432691037655,-0.51915496587753296,0.49755692481994629,0.064800947904586792,-0.47603783011436462,0.36626577377319336,1.0953071117401123,-0.35037767887115479,0.10799144208431244,0.0079541504383087158,0.10723979026079178,0.17947134375572205,-0.56909781694412231,-0.12726768851280212,0.28915208578109741,0.23790377378463745,0.06836981326341629,0.29822748899459839,0.15315011143684387,-2.090996265411377,0.21131013333797455,0.30906370282173157,-0.081348039209842682,0.20021535456180573,0.20774032175540924,-0.58149045705795288,0.062238205224275589,-0.28100967407226562,0.046474914997816086,-0.10764613747596741,0.006443981546908617,-0.03842470794916153,0.10647205263376236,-0.43925571441650391,0.13439328968524933,-0.063865907490253448,0.37983843684196472,0.033818922936916351,0.80935823917388916,0.14811910688877106,-0.0088771842420101166,-0.041189592331647873,-0.23888686299324036,-0.40438708662986755,0.30662897229194641,0.082116343080997467,0.01586557924747467,-0.036578774452209473,0.1769508421421051,0.13675257563591003,-0.16955552995204926,-0.17862319946289062,0.048302933573722839,-0.074015781283378601,-0.019782284274697304,-0.22635543346405029,0.012675398029386997,-0.26550889015197754,-0.28809493780136108,-0.1260809451341629,0.030881604179739952,-0.28765904903411865,0.051605407148599625,-0.11745040118694305,-0.62437981367111206,-0.55742043256759644,0.16194638609886169,-0.43523260951042175,-0.03425280749797821,0.24038109183311462,-0.12398533523082733,-0.19159579277038574,0.0083747804164886475, 
  /* [0][1][][] */ -0.3591688871383667,-0.30722212791442871,0.42125871777534485,-0.46434569358825684,-0.55921131372451782,0.94681394100189209,0.031392231583595276,0.51026320457458496,-0.71965533494949341,-0.15914441645145416,0.0010910313576459885,-0.66877365112304688,0.29937323927879333,-1.0623941421508789,1.9287067651748657,0.21708402037620544,-0.020401204004883766,-0.54644936323165894,-0.1410965621471405,0.27778568863868713,0.15878178179264069,-0.12527111172676086,0.30812382698059082,0.16623903810977936,-0.41431805491447449,-0.054944917559623718,1.0477771759033203,-0.19576866924762726,-0.080162912607192993,1.4141185283660889,2.8022105693817139,-1.0938327312469482,-0.68166285753250122,0.6484687328338623,-1.1096131801605225,-1.0845682621002197,-0.53633010387420654,0.26745298504829407,-0.35643097758293152,0.57022202014923096,-0.60376608371734619,-0.34189465641975403,-0.092347949743270874,0.15572969615459442,-0.82936614751815796,0.56136429309844971,-0.12543123960494995,0.94750708341598511,0.63634967803955078,0.56527930498123169,0.31781890988349915,-0.013260073028504848,0.16354171931743622,-0.33266198635101318,0.33470672369003296,0.15825645625591278,0.8572503924369812,2.9602718353271484,-0.14103929698467255,-0.63775801658630371,1.6532565355300903,-0.63131064176559448,-0.1601586639881134,0.91744011640548706,0.48494115471839905,-0.2348271906375885,-0.19285894930362701,-0.0066533638164401054,1.0863299369812012,0.20155356824398041,1.2977423667907715,0.48334264755249023,-0.57614880800247192,0.66195344924926758,-0.083824761211872101,0.14474451541900635,0.084015801548957825,0.040918044745922089,-0.083924785256385803,0.063329622149467468,-0.52290785312652588,1.55131995677948,-0.58515220880508423,1.4835772514343262,0.0010474108858034015,0.17802940309047699,-0.19974182546138763,0.87111228704452515,0.88742423057556152,-0.84936767816543579,-0.54737281799316406,-0.010531524196267128,1.0334407091140747,-0.33688777685165405,-0.31295406818389893,-0.00034650930319912732, 0.37768921256065369,0.51571470499038696,0.32605493068695068,-1.502095103263855,1.4901560544967651,0.86172729730606079,0.16425162553787231,0.15269818902015686,-1.7566277980804443,0.94427061080932617,1.3675017356872559,-0.21392843127250671,-0.76134461164474487,-1.1787971258163452,-3.1296095848083496,0.87127155065536499,1.0401180982589722,-0.57693630456924438,-1.0090371370315552,-0.15925087034702301,0.31191220879554749,0.16149532794952393,-0.80974465608596802,0.42590925097465515,-0.46569225192070007,-0.45040434598922729,-0.3465651273727417,1.0988395214080811,-0.40500584244728088,2.4257047176361084,-2.8940818309783936,-1.359982967376709,-0.47558397054672241,0.91420072317123413,1.369536280632019,2.4746277332305908,1.8906035423278809,-1.0707149505615234,-1.3214013576507568,0.77797991037368774,-0.80231738090515137,-1.2527139186859131,1.9551342725753784,-0.41722291707992554,-2.2182302474975586,-0.15492607653141022,-0.6834680438041687,-1.8631184101104736,5.0981283187866211,-0.66648954153060913,1.4184578657150269,0.39348879456520081,1.5316474437713623,0.77358633279800415,1.5864968299865723,-0.63522845506668091,0.6745072603225708,-3.0942385196685791,-0.24840858578681946,0.93670028448104858,0.25373619794845581,-1.541102409362793,-0.57269006967544556,-0.71964651346206665,-0.85414135456085205,0.76527982950210571,-1.6540462970733643,1.6327768564224243,-1.0735849142074585,-0.65670198202133179,-1.0895966291427612,-0.42200177907943726,-1.7997188568115234,-0.51675057411193848,3.1373512744903564,1.5013549327850342,-0.76958966255187988,0.41966119408607483,-0.21129234135150909,0.88610851764678955,1.5461180210113525,0.38432902097702026,-0.30334550142288208,-1.7276309728622437,0.15421004593372345,0.67783236503601074,0.33518272638320923,1.3162893056869507,1.4239935874938965,0.077180512249469757,2.1833200454711914,0.00061253621242940426,-0.54795527458190918,0.16471679508686066,1.7616320848464966,-1.5549362897872925, -0.29862675070762634,-0.051900628954172134,-0.2832997739315033,0.50626695156097412,-0.65682607889175415,-1.0121302604675293,0.062482640147209167,-0.10980284214019775,0.25140973925590515,-0.25083458423614502,-0.29973700642585754,0.52737832069396973,0.008170686662197113,0.8424980640411377,0.33766680955886841,0.06560874730348587,-0.034434407949447632,0.57584589719772339,-0.056744232773780823,0.3975905179977417,0.0060381055809557438,-0.15158067643642426,-0.26962211728096008,0.02170863002538681,-0.31597119569778442,0.53663676977157593,-0.57554763555526733,-0.17419831454753876,-0.22326533496379852,-0.37007990479469299,0.38216391205787659,-0.6512298583984375,-0.37582299113273621,0.26864698529243469,0.066710792481899261,-0.34794709086418152,-0.42080464959144592,0.3839288055896759,-0.84105855226516724,0.25639849901199341,1.5513004064559937,-0.063135646283626556,-0.68629735708236694,0.1004536896944046,-0.69497579336166382,-0.2556646466255188,0.082973375916481018,0.64774709939956665,0.34159332513809204,0.70125693082809448,-0.19793984293937683,0.060707412660121918,-0.44431990385055542,-0.43911728262901306,0.037965960800647736,0.099429585039615631,0.64200550317764282,0.052899725735187531,0.002340890234336257,0.15699872374534607,-0.45726794004440308,2.4997706413269043,0.41280019283294678,-0.37697240710258484,-0.29266932606697083,0.070399023592472076,0.49325463175773621,-0.12936630845069885,-0.66612809896469116,0.63178974390029907,-0.18796391785144806,-0.44049054384231567,-0.013449447229504585,-0.35589116811752319,-0.43192651867866516,-0.23687069118022919,0.15990312397480011,0.04968402162194252,0.2081742137670517,-0.25113138556480408,-0.85801810026168823,-0.50947946310043335,0.42059344053268433,0.19067206978797913,-0.12510666251182556,-0.087662078440189362,0.26508796215057373,0.66206210851669312,0.17758305370807648,0.41311854124069214,-0.7450408935546875,0.020364690572023392,-0.34320497512817383,0.462260901927948,-0.36527293920516968,-0.064147651195526123, 
  /* [0][2][][] */ -0.3715115487575531,0.0074759381823241711,-0.018053025007247925,-0.26366335153579712,0.15575352311134338,-0.47093972563743591,0.11916889995336533,0.096470750868320465,0.75189101696014404,-0.21252454817295074,-0.3889315128326416,-0.0085141723975539207,0.20996235311031342,0.15700046718120575,-0.63968610763549805,0.0096818124875426292,-0.052793033421039581,0.58173775672912598,0.053998537361621857,0.0010786089114844799,-0.16393700242042542,-0.14641143381595612,0.011483171954751015,-0.027056561782956123,-0.12251188606023788,-0.26590561866760254,0.29125696420669556,-0.5983964204788208,0.28044945001602173,0.86407226324081421,0.58146357536315918,0.2839597761631012,0.085690334439277649,-0.057832259684801102,-0.14233110845088959,-0.88704812526702881,-0.099859669804573059,0.29792550206184387,-0.039717450737953186,-0.0040606181137263775,-0.19648550450801849,-0.084215179085731506,-1.1971774101257324,0.34956863522529602,0.065816208720207214,0.13657346367835999,0.058353915810585022,0.52553290128707886,-0.61100423336029053,-0.1868150532245636,0.16931970417499542,-0.18049716949462891,0.25028732419013977,-0.0062864418141543865,0.10804553329944611,0.077424980700016022,-0.46095758676528931,0.5640265941619873,-0.030594559386372566,0.097354985773563385,0.19263666868209839,-0.0015837268438190222,-0.095332622528076172,-0.035106472671031952,-0.0034472045954316854,-0.28603482246398926,-0.59979617595672607,0.19960865378379822,-0.28008812665939331,0.070208080112934113,0.26073473691940308,0.14535798132419586,0.18440935015678406,-0.13078294694423676,0.71495860815048218,0.055318944156169891,0.10123088210821152,0.014767500571906567,-0.21085634827613831,-0.08636900782585144,-0.10195083916187286,-0.094259180128574371,0.12951567769050598,0.19142653048038483,-0.33502909541130066,0.036410816013813019,0.047929201275110245,-1.2363216876983643,-0.64643090963363647,-0.33439108729362488,-0.4697062075138092,-0.052589833736419678,0.073438011109828949,0.27155646681785583,-0.25622442364692688,-0.10234852880239487, 0.68846416473388672,0.13902407884597778,-0.72166043519973755,-0.45616674423217773,-0.83885747194290161,-0.25329145789146423,0.07050323486328125,0.12000228464603424,-0.89723944664001465,-0.21566824615001678,-0.21029207110404968,-0.6060023307800293,-0.89935392141342163,1.0172123908996582,-0.30753952264785767,0.25242975354194641,0.022384203970432281,-0.4621519148349762,-0.073788799345493317,-0.39681509137153625,0.27576106786727905,-0.092845618724822998,-0.25898239016532898,0.0030284798704087734,-0.46957117319107056,0.64167922735214233,-0.41066575050354004,0.17269603908061981,-0.11307797580957413,-0.45849096775054932,-0.19167612493038177,-0.041345532983541489,-0.33294466137886047,0.118589848279953,0.34400179982185364,0.11424803733825684,-0.33246546983718872,-0.2432723194360733,1.5701305866241455,0.32378977537155151,0.13315775990486145,-0.18259592354297638,1.2131487131118774,-0.10994851589202881,-0.67043888568878174,0.33295202255249023,-0.36524564027786255,-0.64002066850662231,-1.3298102617263794,-0.034470867365598679,-2.1218740940093994,-1.1830775737762451,-0.60794436931610107,-0.15528790652751923,0.0090608345344662666,0.20000658929347992,-0.42999309301376343,-0.18211200833320618,0.024471109732985497,0.28142657876014709,-0.10336535423994064,-0.36194580793380737,0.040110290050506592,-0.34362581372261047,-0.36139518022537231,0.19568461179733276,0.84422636032104492,-0.2744164764881134,0.98904365301132202,0.55747401714324951,-0.24312569200992584,-0.35787001252174377,0.15636485815048218,-0.37766772508621216,0.058407742530107498,0.035875961184501648,0.60052251815795898,0.014784050174057484,0.13846041262149811,0.15334276854991913,0.14275674521923065,-1.1954724788665771,-0.36543673276901245,0.025661682710051537,0.0050568617880344391,0.04135550931096077,0.46314600110054016,1.1446932554244995,-0.67172259092330933,0.25375041365623474,-0.32402455806732178,-0.11753590404987335,0.32786092162132263,0.37791019678115845,-0.13259738683700562,0.30999419093132019, -0.29809007048606873,0.054155997931957245,-0.098309680819511414,0.35623094439506531,0.18581041693687439,-0.70519512891769409,-0.23523098230361938,0.0068776351399719715,-0.15895666182041168,-0.061921656131744385,-0.17112167179584503,0.027727222070097923,0.1707356870174408,-0.24721400439739227,0.47872206568717957,-0.01615411601960659,-0.060317374765872955,-0.14783276617527008,0.035197362303733826,0.051753293722867966,-0.14522290229797363,-0.12707197666168213,0.094715818762779236,0.0026570842601358891,0.069400385022163391,-0.47496497631072998,0.17578886449337006,0.023972833529114723,-0.15551644563674927,-0.8599088191986084,-0.15266205370426178,0.18185362219810486,0.22491069138050079,-0.14846593141555786,-0.08593720942735672,-0.48041895031929016,-0.51402854919433594,0.028351178392767906,0.51394909620285034,-0.24776503443717957,0.27472302317619324,-0.034186102449893951,-0.85295945405960083,-0.10675723850727081,0.048042993992567062,0.28681203722953796,0.11804845929145813,0.22613552212715149,-0.36447969079017639,-0.027388980612158775,0.16006304323673248,-0.076454013586044312,0.20231609046459198,0.032071467489004135,-0.05518520250916481,-0.023573679849505424,-0.40706667304039001,-0.31022065877914429,0.0059548141434788704,-0.28725656867027283,-0.15909188985824585,0.18897642195224762,0.3784002959728241,-0.077866412699222565,0.22975458204746246,-0.015569710172712803,-0.0086463233456015587,0.36214238405227661,0.011362718418240547,0.029056848958134651,-0.040324278175830841,0.094709090888500214,-0.2520163357257843,0.10037363320589066,-0.029744001105427742,0.17842280864715576,0.21327225863933563,-0.00026181989233009517,0.20145127177238464,-0.084331654012203217,0.035160597413778305,-0.088651925325393677,-0.050732042640447617,-0.2389151006937027,0.19235149025917053,0.0042187557555735111,0.15824650228023529,-1.0912685394287109,0.66397649049758911,0.25741705298423767,-0.28799360990524292,-0.057440485805273056,-0.054602932184934616,0.0091120097786188126,-0.19966249167919159,-0.19258381426334381, 
};
const TfArray<4, int> tensor_dimension25 = { 4, { 1,3,3,96 } };
const MODEL_SECTION(EI_MODEL_SECTION) ALIGN(16) float tensor_data26[16] = { -6.1404919624328613, 5.9886436462402344, -4.0365781784057617, -0.43764045834541321, -4.1092715263366699, 3.5383310317993164, 10.876590728759766, -14.313935279846191, -0.93120050430297852, 3.732072114944458, 14.311712265014648, 8.9071903228759766, -4.5277266502380371, 2.530327320098877, -3.1004734039306641, 4.6843838691711426, };
const TfArray<1, int> tensor_dimension26 = { 1, { 16 } };
const MODEL_SECTION(EI_MODEL_SECTION) ALIGN(8) float tensor_data27[2] = { 6.6564173698425293, -6.6902318000793457, };
const TfArray<1, int> tensor_dimension27 = { 1, { 2 } };
const MODEL_SECTION(EI_MODEL_SECTION) ALIGN(16) float tensor_data28[16*3*3*3] = { 
  /* [0][0][][] */ 4.8747259224958709e-20,3.7147711957476137e-20,2.2560115283226402e-20, 1.8998144703015219e-20,9.99850122558854e-21,2.4239875557561167e-21, 1.4501873620925392e-20,1.3855346346097105e-20,8.9639567732261252e-21, 
  /* [0][1][][] */ 3.8636523968972215e-20,2.4191955223685994e-20,1.3960823183307553e-20, 2.0533141503907886e-20,1.3445754617976975e-20,2.9473941662847144e-21, 2.0706167654773519e-20,1.8024154072018234e-20,1.7330613211593671e-20, 
  /* [0][2][][] */ 3.1181633015346212e-20,1.1348582769897257e-21,-8.6793048605184484e-21, 1.1872147707964976e-20,-1.0257333632515912e-20,-2.2796315737788639e-20, 1.7555312301349726e-20,6.2228341078998947e-21,2.910896437342946e-21, 
  /* [1][0][][] */ 2.3325827121734619,-0.48465651273727417,1.3770686388015747, -0.47544828057289124,-1.5217281579971313,0.56513333320617676, -7.1845860481262207,-6.8909335136413574,-3.7735440731048584, 
  /* [1][1][][] */ -0.11114367842674255,-0.55735540390014648,-0.34811031818389893, -1.3944553136825562,-0.10629225522279739,-0.5338977575302124, -0.083419062197208405,-1.9357450008392334,0.28110197186470032, 
  /* [1][2][][] */ -0.43345373868942261,0.66253656148910522,-0.36005106568336487, -0.45592910051345825,0.1350414901971817,-0.35961320996284485, 2.0787153244018555,-1.204715371131897,0.6387220025062561, 
  /* [2][0][][] */ 2.1657319068908691,-0.44351086020469666,-0.42425349354743958, 5.4292173385620117,8.1943149566650391,0.030959898605942726, 2.7999296188354492,-2.919227123260498,0.37824755907058716, 
  /* [2][1][][] */ 0.75485450029373169,0.8993227481842041,-0.056150421500205994, 5.2864599227905273,9.2533426284790039,-1.9981694221496582, 1.4390528202056885,-0.41718655824661255,-0.56579607725143433, 
  /* [2][2][][] */ 3.6852278709411621,-4.6626152992248535,1.5629537105560303, 5.7913618087768555,-2.8772234916687012,-1.362552285194397, 2.489901065826416,-3.8672139644622803,1.0773574113845825, 
  /* [3][0][][] */ 0.098582655191421509,0.49227425456047058,0.038943145424127579, 0.47361144423484802,1.3579261302947998,0.27059805393218994, 0.044005136936903,0.11379558593034744,-0.031749658286571503, 
  /* [3][1][][] */ 0.31918433308601379,0.54466062784194946,0.083581097424030304, 0.98755353689193726,1.839063286781311,0.35033202171325684, -0.14924709498882294,-0.225394606590271,0.082731515169143677, 
  /* [3][2][][] */ 0.088611744344234467,0.055872227996587753,0.052600163966417313, 0.34340551495552063,0.34068858623504639,0.070830486714839935, 0.021021844819188118,-0.017905589193105698,0.066629372537136078, 
  /* [4][0][][] */ 0.16969737410545349,0.31623518466949463,-0.044034283608198166, 0.068614847958087921,0.36556991934776306,-0.047095660120248795, -0.073206223547458649,0.032428164035081863,-0.019002009183168411, 
  /* [4][1][][] */ 0.19728375971317291,0.40268191695213318,0.20683708786964417, 0.13210228085517883,0.52590072154998779,0.12190689891576767, 0.12234283238649368,0.21633189916610718,-0.077811896800994873, 
  /* [4][2][][] */ 0.24817915260791779,0.35005220770835876,0.15710236132144928, 0.20584644377231598,0.5278317928314209,0.054693162441253662, -0.10451572388410568,0.088725633919239044,0.069406822323799133, 
  /* [5][0][][] */ 0.82373684644699097,0.22430789470672607,-10.005842208862305, -0.051535442471504211,0.1771761029958725,-8.500056266784668, -0.45209139585494995,2.3985354900360107,-2.4534175395965576, 
  /* [5][1][][] */ 0.5577465295791626,-3.5087029933929443,-10.664003372192383, 0.058537624776363373,-3.7282335758209229,-9.7119722366333008, -0.10248687863349915,1.0462312698364258,-2.159736156463623, 
  /* [5][2][][] */ -0.06581251323223114,0.79413574934005737,-1.4645814895629883, 0.29348868131637573,-0.14312711358070374,-1.0183670520782471, 0.15192125737667084,1.1222952604293823,-0.99152129888534546, 
  /* [6][0][][] */ 0.46279045939445496,-1.1841886043548584,0.65059340000152588, 0.86867111921310425,-1.6595553159713745,0.73203396797180176, 0.14944246411323547,-0.40244939923286438,0.13899236917495728, 
  /* [6][1][][] */ 0.69713032245635986,-1.7827476263046265,1.1775956153869629, 1.195544958114624,-2.3962976932525635,1.3447383642196655, 0.12091276049613953,-0.54640883207321167,0.29988059401512146, 
  /* [6][2][][] */ 0.39891096949577332,-0.63225871324539185,0.2680932879447937, 0.26703962683677673,-0.82474327087402344,0.48901841044425964, -0.24689210951328278,0.13393597304821014,-0.023535571992397308, 
  /* [7][0][][] */ -3.134692907333374,1.3248862028121948,0.17223872244358063, -10.155782699584961,-4.0756402015686035,0.027234753593802452, -2.5260751247406006,1.941973090171814,-0.069308824837207794, 
  /* [7][1][][] */ -1.4591826200485229,-0.99891453981399536,-0.11552228778600693, -11.763322830200195,-9.1686344146728516,-0.47029060125350952, -0.84262663125991821,-0.79152107238769531,0.24316003918647766, 
  /* [7][2][][] */ -2.4127223491668701,2.588554859161377,-1.0002185106277466, -1.0305198431015015,0.76481616497039795,0.19112499058246613, -2.2681903839111328,2.0741167068481445,-0.47562092542648315, 
  /* [8][0][][] */ 0.066506892442703247,0.067838184535503387,0.029283285140991211, 0.065777145326137543,0.069274768233299255,0.029874902218580246, 0.06183309480547905,0.064053423702716827,0.024302743375301361, 
  /* [8][1][][] */ 0.06724124401807785,0.065779097378253937,0.027435749769210815, 0.063491500914096832,0.064340740442276001,0.026210719719529152, 0.061087865382432938,0.061668664216995239,0.021528210490942001, 
  /* [8][2][][] */ 0.10100480169057846,0.10091483592987061,0.058927357196807861, 0.099619045853614807,0.10269307345151901,0.059949707239866257, 0.096216589212417603,0.098153918981552124,0.053275588899850845, 
  /* [9][0][][] */ -0.39381164312362671,-0.091894276440143585,0.12473805248737335, -0.23514245450496674,-0.12093809247016907,-0.017365278676152229, 0.11882942914962769,0.11612868309020996,-0.1347041130065918, 
  /* [9][1][][] */ 1.6465835571289062,1.9316881895065308,-0.17922911047935486, 1.3080757856369019,2.2021369934082031,0.27823188900947571, -0.043239951133728027,0.4148125946521759,0.50896537303924561, 
